{"learner":{"attributes":{"scikit_learn":"{\"_estimator_type\": \"regressor\"}"},"feature_names":[],"feature_types":[],"gradient_booster":{"model":{"cats":{"enc":[],"feature_segments":[],"sorted_idx":[]},"gbtree_model_param":{"num_parallel_tree":"1","num_trees":"100"},"iteration_indptr":[0,1,2,3,4,5,6,7,8,9,10,11,12,13,14,15,16,17,18,19,20,21,22,23,24,25,26,27,28,29,30,31,32,33,34,35,36,37,38,39,40,41,42,43,44,45,46,47,48,49,50,51,52,53,54,55,56,57,58,59,60,61,62,63,64,65,66,67,68,69,70,71,72,73,74,75,76,77,78,79,80,81,82,83,84,85,86,87,88,89,90,91,92,93,94,95,96,97,98,99,100],"tree_info":[0,0,0,0,0,0,0,0,0,0,0,0,0,0,0,0,0,0,0,0,0,0,0,0,0,0,0,0,0,0,0,0,0,0,0,0,0,0,0,0,0,0,0,0,0,0,0,0,0,0,0,0,0,0,0,0,0,0,0,0,0,0,0,0,0,0,0,0,0,0,0,0,0,0,0,0,0,0,0,0,0,0,0,0,0,0,0,0,0,0,0,0,0,0,0,0,0,0,0,0],"trees":[{"base_weights":[-7.8268725E-9,6.2968314E-1,-1.3282379E0,-4.2847484E-1,7.755571E-1,-1.1586907E0,-1.966385E-1,3.1648543E-2,-6.1071526E-2,1.20878436E-1,5.0528E-2,-1.7784469E-1,-9.128088E-2],"categories":[],"categories_nodes":[],"categories_segments":[],"categories_sizes":[],"default_left":[0,0,0,0,0,0,0,0,0,0,0,0,0],"id":0,"left_children":[1,3,5,7,9,11,-1,-1,-1,-1,-1,-1,-1],"loss_changes":[1.6643744E2,2.1170597E1,4.646118E0,2.5012348E0,1.3323097E1,6.4531097E0,0E0,0E0,0E0,0E0,0E0,0E0,0E0],"parents":[2147483647,0,0,1,1,2,2,3,3,4,4,5,5],"right_children":[2,4,6,8,10,12,-1,-1,-1,-1,-1,-1,-1],"split_conditions":[3.61639E-1,-6.884436E-1,1.0683957E0,-3.5554016E-1,-3.9815167E-1,-1.0229032E0,-1.966385E-1,3.1648543E-2,-6.1071526E-2,1.20878436E-1,5.0528E-2,-1.7784469E-1,-9.128088E-2],"split_indices":[0,1,6,0,8,1,0,0,0,0,0,0,0],"split_type":[0,0,0,0,0,0,0,0,0,0,0,0,0],"sum_hessian":[1.97E2,1.34E2,6.3E1,1.6E1,1.18E2,5.2E1,1.1E1,3E0,1.3E1,4.4E1,7.4E1,1.3E1,3.9E1],"tree_param":{"num_deleted":"0","num_feature":"9","num_nodes":"13","size_leaf_vector":"1"}},{"base_weights":[-1.6352832E-3,5.483751E-1,-1.2458943E0,8.4680736E-1,1.0943093E-1,-1.3163191E0,-3.8094732E-1,5.225798E-2,1.22701444E-1,-5.5400606E-2,3.1803746E-2,-1.16178386E-1,-1.786133E-1,5.137064E-2,-9.567008E-2],"categories":[],"categories_nodes":[],"categories_segments":[],"categories_sizes":[],"default_left":[0,0,0,0,0,0,0,0,0,0,0,0,0,0,0],"id":1,"left_children":[1,3,5,7,9,11,13,-1,-1,-1,-1,-1,-1,-1,-1],"loss_changes":[1.3618558E2,1.7984657E1,3.214302E0,9.467224E0,8.064839E0,1.990654E0,3.5820632E0,0E0,0E0,0E0,0E0,0E0,0E0,0E0,0E0],"parents":[2147483647,0,0,1,1,2,2,3,3,4,4,5,5,6,6],"right_children":[2,4,6,8,10,12,14,-1,-1,-1,-1,-1,-1,-1,-1],"split_conditions":[5.0016E-1,-3.5554016E-1,9.948192E-1,8.140547E-1,-6.884436E-1,1.0683957E0,-4.032944E-1,5.225798E-2,1.22701444E-1,-5.5400606E-2,3.1803746E-2,-1.16178386E-1,-1.786133E-1,5.137064E-2,-9.567008E-2],"split_indices":[0,0,3,6,1,6,8,0,0,0,0,0,0,0,0],"split_type":[0,0,0,0,0,0,0,0,0,0,0,0,0,0,0],"sum_hessian":[1.97E2,1.37E2,6E1,8.1E1,5.6E1,5.5E1,5E0,4.5E1,3.6E1,1.3E1,4.3E1,4.4E1,1.1E1,2E0,3E0],"tree_param":{"num_deleted":"0","num_feature":"9","num_nodes":"15","size_leaf_vector":"1"}},{"base_weights":[-2.419901E-3,5.135383E-1,-1.0907315E0,-3.6250246E-1,6.343716E-1,-1.1656423E0,-3.14223E-1,-5.4904617E-2,3.810261E-2,1.0271134E-1,3.9864767E-2,-1.0242213E-1,-1.6224043E-1,3.35058E-2,-8.849483E-2],"categories":[],"categories_nodes":[],"categories_segments":[],"categories_sizes":[],"default_left":[0,0,0,0,0,0,0,0,0,0,0,0,0,0,0],"id":2,"left_children":[1,3,5,7,9,11,13,-1,-1,-1,-1,-1,-1,-1,-1],"loss_changes":[1.11741745E2,1.4520363E1,3.3565445E0,2.5671098E0,1.0607407E1,2.0848389E0,2.8904364E0,0E0,0E0,0E0,0E0,0E0,0E0,0E0,0E0],"parents":[2147483647,0,0,1,1,2,2,3,3,4,4,5,5,6,6],"right_children":[2,4,6,8,10,12,14,-1,-1,-1,-1,-1,-1,-1,-1],"split_conditions":[3.61639E-1,-6.884436E-1,9.948192E-1,-3.6088586E-2,-3.9875394E-1,1.0683957E0,-4.032944E-1,-5.4904617E-2,3.810261E-2,1.0271134E-1,3.9864767E-2,-1.0242213E-1,-1.6224043E-1,3.35058E-2,-8.849483E-2],"split_indices":[0,1,3,0,8,6,8,0,0,0,0,0,0,0,0],"split_type":[0,0,0,0,0,0,0,0,0,0,0,0,0,0,0],"sum_hessian":[1.97E2,1.34E2,6.3E1,1.6E1,1.18E2,5.7E1,6E0,1.3E1,3E0,4.3E1,7.5E1,4.6E1,1.1E1,3E0,3E0],"tree_param":{"num_deleted":"0","num_feature":"9","num_nodes":"15","size_leaf_vector":"1"}},{"base_weights":[-3.1571204E-3,4.631161E-1,-9.866529E-1,7.476037E-1,1.3583137E-1,-1.3735453E0,-8.2907325E-1,9.032268E-2,1.9098628E-2,8.367721E-2,-5.9247087E-3,-2.5055422E-2,-1.4280726E-1,-6.429278E-2,-1.5642673E-1],"categories":[],"categories_nodes":[],"categories_segments":[],"categories_sizes":[],"default_left":[0,0,0,0,0,0,0,0,0,0,0,0,0,0,0],"id":3,"left_children":[1,3,5,7,9,11,13,-1,-1,-1,-1,-1,-1,-1,-1],"loss_changes":[9.1255325E1,1.2468094E1,2.7630844E0,6.064316E0,8.800837E0,6.831589E-1,5.563236E0,0E0,0E0,0E0,0E0,0E0,0E0,0E0,0E0],"parents":[2147483647,0,0,1,1,2,2,3,3,4,4,5,5,6,6],"right_children":[2,4,6,8,10,12,14,-1,-1,-1,-1,-1,-1,-1,-1],"split_conditions":[3.61639E-1,-5.06288E-1,-1.0229032E0,7.648902E-1,-4.2596063E-1,5.7298905E-1,1.0683957E0,9.032268E-2,1.9098628E-2,8.367721E-2,-5.9247087E-3,-2.5055422E-2,-1.4280726E-1,-6.429278E-2,-1.5642673E-1],"split_indices":[0,0,1,5,8,0,6,0,0,0,0,0,0,0,0],"split_type":[0,0,0,0,0,0,0,0,0,0,0,0,0,0,0],"sum_hessian":[1.97E2,1.34E2,6.3E1,7.1E1,6.3E1,1.6E1,4.7E1,5.5E1,1.6E1,1.3E1,5E1,1E0,1.5E1,3.9E1,8E0],"tree_param":{"num_deleted":"0","num_feature":"9","num_nodes":"15","size_leaf_vector":"1"}},{"base_weights":[-3.8586317E-3,4.0399906E-1,-9.2648983E-1,6.395844E-1,5.7999134E-2,-1.1577215E0,-7.2164005E-1,8.772837E-2,2.6005259E-2,-4.788087E-2,2.2748346E-2,-1.0469516E-2,-1.2849875E-1,-8.1588775E-2,5.556317E-2],"categories":[],"categories_nodes":[],"categories_segments":[],"categories_sizes":[],"default_left":[0,0,0,0,0,0,0,0,0,0,0,0,0,0,0],"id":4,"left_children":[1,3,5,7,9,11,13,-1,-1,-1,-1,-1,-1,-1,-1],"loss_changes":[7.488216E1,1.1211632E1,2.0539742E0,7.169441E0,5.29481E0,3.48386E0,4.66663E0,0E0,0E0,0E0,0E0,0E0,0E0,0E0,0E0],"parents":[2147483647,0,0,1,1,2,2,3,3,4,4,5,5,6,6],"right_children":[2,4,6,8,10,12,14,-1,-1,-1,-1,-1,-1,-1,-1],"split_conditions":[5.0016E-1,-3.5554016E-1,-2.3775554E-1,-3.2974362E-1,-6.884436E-1,-4.7232336E-1,1.0785246E0,8.772837E-2,2.6005259E-2,-4.788087E-2,2.2748346E-2,-1.0469516E-2,-1.2849875E-1,-8.1588775E-2,5.556317E-2],"split_indices":[0,0,3,8,1,8,7,0,0,0,0,0,0,0,0],"split_type":[0,0,0,0,0,0,0,0,0,0,0,0,0,0,0],"sum_hessian":[1.97E2,1.37E2,6E1,8.1E1,5.6E1,2.6E1,3.4E1,4.9E1,3.2E1,1.3E1,4.3E1,3E0,2.3E1,3.2E1,2E0],"tree_param":{"num_deleted":"0","num_feature":"9","num_nodes":"15","size_leaf_vector":"1"}},{"base_weights":[-3.858541E-3,3.7805516E-1,-8.0939746E-1,-3.2239565E-1,4.7494262E-1,-6.9320655E-1,-1.2551243E0,-5.0371E-2,3.928033E-2,7.926229E-2,2.8477326E-2,-3.1511165E-2,-9.513671E-2,-1.3182594E-1,-2.8031958E-2],"categories":[],"categories_nodes":[],"categories_segments":[],"categories_sizes":[],"default_left":[0,0,0,0,0,0,0,0,0,0,0,0,0,0,0],"id":5,"left_children":[1,3,5,7,9,11,13,-1,-1,-1,-1,-1,-1,-1,-1],"loss_changes":[6.1219975E1,9.31488E0,2.4444618E0,2.402347E0,6.963434E0,4.873501E0,3.6899757E-1,0E0,0E0,0E0,0E0,0E0,0E0,0E0,0E0],"parents":[2147483647,0,0,1,1,2,2,3,3,4,4,5,5,6,6],"right_children":[2,4,6,8,10,12,14,-1,-1,-1,-1,-1,-1,-1,-1],"split_conditions":[3.61639E-1,-6.884436E-1,1.0683957E0,-3.6088586E-2,-3.9875394E-1,-3.7816814E-1,1.551205E0,-5.0371E-2,3.928033E-2,7.926229E-2,2.8477326E-2,-3.1511165E-2,-9.513671E-2,-1.3182594E-1,-2.8031958E-2],"split_indices":[0,1,6,0,8,8,6,0,0,0,0,0,0,0,0],"split_type":[0,0,0,0,0,0,0,0,0,0,0,0,0,0,0],"sum_hessian":[1.97E2,1.34E2,6.3E1,1.6E1,1.18E2,5.2E1,1.1E1,1.3E1,3E0,4.3E1,7.5E1,2.2E1,3E1,1E1,1E0],"tree_param":{"num_deleted":"0","num_feature":"9","num_nodes":"15","size_leaf_vector":"1"}},{"base_weights":[-4.431578E-3,3.29104E-1,-7.589148E-1,5.4327434E-1,4.1627962E-2,-9.3312985E-1,-5.202639E-1,2.7855216E-2,8.681094E-2,4.961203E-2,-9.463843E-3,-3.7208106E-2,-1.0648062E-1,-7.369872E-2,1.1366765E-2],"categories":[],"categories_nodes":[],"categories_segments":[],"categories_sizes":[],"default_left":[0,0,0,0,0,0,0,0,0,0,0,0,0,0,0],"id":6,"left_children":[1,3,5,7,9,11,13,-1,-1,-1,-1,-1,-1,-1,-1],"loss_changes":[5.007587E1,8.4738865E0,2.0506973E0,6.5514774E0,3.762874E0,2.1156158E0,3.9306288E0,0E0,0E0,0E0,0E0,0E0,0E0,0E0,0E0],"parents":[2147483647,0,0,1,1,2,2,3,3,4,4,5,5,6,6],"right_children":[2,4,6,8,10,12,14,-1,-1,-1,-1,-1,-1,-1,-1],"split_conditions":[5.0016E-1,-3.7943858E-1,-3.0972344E-1,8.140547E-1,-4.2596063E-1,9.813576E-1,5.499627E-1,2.7855216E-2,8.681094E-2,4.961203E-2,-9.463843E-3,-3.7208106E-2,-1.0648062E-1,-7.369872E-2,1.1366765E-2],"split_indices":[0,0,2,6,8,0,5,0,0,0,0,0,0,0,0],"split_type":[0,0,0,0,0,0,0,0,0,0,0,0,0,0,0],"sum_hessian":[1.97E2,1.37E2,6E1,7.8E1,5.9E1,3.3E1,2.7E1,4.4E1,3.4E1,1.3E1,4.6E1,7E0,2.6E1,2E1,7E0],"tree_param":{"num_deleted":"0","num_feature":"9","num_nodes":"15","size_leaf_vector":"1"}},{"base_weights":[-4.2470195E-3,3.0869788E-1,-6.642988E-1,-2.9670992E-1,3.9259058E-1,-9.802829E-1,-5.385482E-1,-4.661309E-2,3.704409E-2,6.6494934E-2,2.2974355E-2,-3.72437E-2,-1.08393304E-1,-3.881631E-2,-1.1470878E-1],"categories":[],"categories_nodes":[],"categories_segments":[],"categories_sizes":[],"default_left":[0,0,0,0,0,0,0,0,0,0,0,0,0,0,0],"id":7,"left_children":[1,3,5,7,9,11,13,-1,-1,-1,-1,-1,-1,-1,-1],"loss_changes":[4.1103912E1,6.9730415E0,2.0151215E0,2.0941725E0,5.1252193E0,6.673584E-1,3.9474773E0,0E0,0E0,0E0,0E0,0E0,0E0,0E0,0E0],"parents":[2147483647,0,0,1,1,2,2,3,3,4,4,5,5,6,6],"right_children":[2,4,6,8,10,12,14,-1,-1,-1,-1,-1,-1,-1,-1],"split_conditions":[3.61639E-1,-6.884436E-1,-1.0229032E0,-3.6088586E-2,-3.9875394E-1,-4.80202E-1,1.0683957E0,-4.661309E-2,3.704409E-2,6.6494934E-2,2.2974355E-2,-3.72437E-2,-1.08393304E-1,-3.881631E-2,-1.1470878E-1],"split_indices":[0,1,1,0,8,8,6,0,0,0,0,0,0,0,0],"split_type":[0,0,0,0,0,0,0,0,0,0,0,0,0,0,0],"sum_hessian":[1.97E2,1.34E2,6.3E1,1.6E1,1.18E2,1.6E1,4.7E1,1.3E1,3E0,4.3E1,7.5E1,3E0,1.3E1,3.9E1,8E0],"tree_param":{"num_deleted":"0","num_feature":"9","num_nodes":"15","size_leaf_vector":"1"}},{"base_weights":[-4.9296594E-3,2.7842E-1,-6.025433E-1,4.745313E-1,5.3444453E-2,-3.4643066E-1,-7.284492E-1,8.52048E-2,2.7994081E-2,-2.6951924E-3,1.2661281E-1,8.6576805E-2,-5.031052E-2,-1.214055E-1,-5.9664078E-2],"categories":[],"categories_nodes":[],"categories_segments":[],"categories_sizes":[],"default_left":[0,0,0,0,0,0,0,0,0,0,0,0,0,0,0],"id":8,"left_children":[1,3,5,7,9,11,13,-1,-1,-1,-1,-1,-1,-1,-1],"loss_changes":[3.3695816E1,5.930874E0,1.8113937E0,5.05068E0,6.273828E0,4.803748E0,1.9639359E0,0E0,0E0,0E0,0E0,0E0,0E0,0E0,0E0],"parents":[2147483647,0,0,1,1,2,2,3,3,4,4,5,5,6,6],"right_children":[2,4,6,8,10,12,14,-1,-1,-1,-1,-1,-1,-1,-1],"split_conditions":[3.61639E-1,-5.06288E-1,9.813576E-1,-1.1177986E-1,2.847114E-1,-4.6581492E-1,-8.5404295E-1,8.52048E-2,2.7994081E-2,-2.6951924E-3,1.2661281E-1,8.6576805E-2,-5.031052E-2,-1.214055E-1,-5.9664078E-2],"split_indices":[0,0,0,7,0,8,3,0,0,0,0,0,0,0,0],"split_type":[0,0,0,0,0,0,0,0,0,0,0,0,0,0,0],"sum_hessian":[1.97E2,1.34E2,6.3E1,7.1E1,6.3E1,2.2E1,4.1E1,2.3E1,4.8E1,6E1,3E0,2E0,2E1,7E0,3.4E1],"tree_param":{"num_deleted":"0","num_feature":"9","num_nodes":"15","size_leaf_vector":"1"}},{"base_weights":[-3.9705066E-3,2.4411477E-1,-5.651475E-1,4.058447E-1,7.1679982E-3,-4.706657E-1,-9.117263E-1,1.6816879E-2,6.9036484E-2,4.656489E-2,-1.2544133E-2,-1.4281218E-2,-6.844743E-2,-9.646815E-2,-1.6460938E-2],"categories":[],"categories_nodes":[],"categories_segments":[],"categories_sizes":[],"default_left":[0,0,0,0,0,0,0,0,0,0,0,0,0,0,0],"id":9,"left_children":[1,3,5,7,9,11,13,-1,-1,-1,-1,-1,-1,-1,-1],"loss_changes":[2.7703474E1,5.2854414E0,1.5683498E0,5.429035E0,3.5239453E0,3.4071426E0,3.1596947E-1,0E0,0E0,0E0,0E0,0E0,0E0,0E0,0E0],"parents":[2147483647,0,0,1,1,2,2,3,3,4,4,5,5,6,6],"right_children":[2,4,6,8,10,12,14,-1,-1,-1,-1,-1,-1,-1,-1],"split_conditions":[5.0016E-1,-3.5554016E-1,1.0683957E0,8.140547E-1,-4.2596063E-1,-3.825825E-1,1.551205E0,1.6816879E-2,6.9036484E-2,4.656489E-2,-1.2544133E-2,-1.4281218E-2,-6.844743E-2,-9.646815E-2,-1.6460938E-2],"split_indices":[0,0,6,6,8,8,6,0,0,0,0,0,0,0,0],"split_type":[0,0,0,0,0,0,0,0,0,0,0,0,0,0,0],"sum_hessian":[1.97E2,1.37E2,6E1,8.1E1,5.6E1,4.9E1,1.1E1,4.5E1,3.6E1,1.2E1,4.4E1,2E1,2.9E1,1E1,1E0],"tree_param":{"num_deleted":"0","num_feature":"9","num_nodes":"15","size_leaf_vector":"1"}},{"base_weights":[-3.956183E-3,2.2057196E-1,-5.118403E-1,-2.7514827E-1,2.8783977E-1,-6.5850043E-1,-3.1547296E-1,-4.3527644E-2,3.540874E-2,8.58283E-2,2.2924412E-2,-2.2167547E-2,-7.635411E-2,-5.001936E-2,2.0885287E-2],"categories":[],"categories_nodes":[],"categories_segments":[],"categories_sizes":[],"default_left":[0,0,0,0,0,0,0,0,0,0,0,0,0,0,0],"id":10,"left_children":[1,3,5,7,9,11,13,-1,-1,-1,-1,-1,-1,-1,-1],"loss_changes":[2.2691683E1,4.6809483E0,1.549015E0,1.8670179E0,3.881154E0,1.3908129E0,2.8163729E0,0E0,0E0,0E0,0E0,0E0,0E0,0E0,0E0],"parents":[2147483647,0,0,1,1,2,2,3,3,4,4,5,5,6,6],"right_children":[2,4,6,8,10,12,14,-1,-1,-1,-1,-1,-1,-1,-1],"split_conditions":[5.0016E-1,-6.884436E-1,-3.0972344E-1,-3.6088586E-2,-1.3348573E0,9.813576E-1,5.499627E-1,-4.3527644E-2,3.540874E-2,8.58283E-2,2.2924412E-2,-2.2167547E-2,-7.635411E-2,-5.001936E-2,2.0885287E-2],"split_indices":[0,1,2,0,5,0,5,0,0,0,0,0,0,0,0],"split_type":[0,0,0,0,0,0,0,0,0,0,0,0,0,0,0],"sum_hessian":[1.97E2,1.37E2,6E1,1.6E1,1.21E2,3.3E1,2.7E1,1.3E1,3E0,1E1,1.11E2,7E0,2.6E1,2E1,7E0],"tree_param":{"num_deleted":"0","num_feature":"9","num_nodes":"15","size_leaf_vector":"1"}},{"base_weights":[-3.6970435E-3,3.1060252E-1,-3.0862436E-1,3.529067E-1,-1.1466657E-1,-1.363476E-1,-5.473858E-1,1.5635004E-2,6.4879976E-2,2.5036067E-3,-4.6036676E-2,-9.911627E-2,-4.3031152E-2],"categories":[],"categories_nodes":[],"categories_segments":[],"categories_sizes":[],"default_left":[0,0,0,0,0,0,0,0,0,0,0,0,0],"id":11,"left_children":[1,3,5,7,-1,9,11,-1,-1,-1,-1,-1,-1],"loss_changes":[1.9071886E1,6.446224E0,4.0798035E0,5.4818964E0,0E0,3.14901E0,1.7555971E0,0E0,0E0,0E0,0E0,0E0,0E0],"parents":[2147483647,0,0,1,1,2,2,3,3,5,5,6,6],"right_children":[2,4,6,8,-1,10,12,-1,-1,-1,-1,-1,-1],"split_conditions":[-1.861378E-1,1.5421784E0,9.813576E-1,8.140547E-1,-1.1466657E-1,3.9835063E-1,-8.5404295E-1,1.5635004E-2,6.4879976E-2,2.5036067E-3,-4.6036676E-2,-9.911627E-2,-4.3031152E-2],"split_indices":[0,6,0,6,0,7,3,0,0,0,0,0,0],"split_type":[0,0,0,0,0,0,0,0,0,0,0,0,0],"sum_hessian":[1.97E2,9.7E1,1E2,9.5E1,2E0,5.9E1,4.1E1,5.8E1,3.7E1,4E1,1.9E1,7E0,3.4E1],"tree_param":{"num_deleted":"0","num_feature":"9","num_nodes":"13","size_leaf_vector":"1"}},{"base_weights":[-4.437596E-3,2.791938E-1,-2.7960035E-1,3.1845474E-1,-1.0702213E-1,-1.23438396E-1,-4.9603173E-1,1.4098003E-2,5.8562722E-2,3.5519626E-2,-2.2626927E-2,-9.04436E-2,-3.8850985E-2],"categories":[],"categories_nodes":[],"categories_segments":[],"categories_sizes":[],"default_left":[0,0,0,0,0,0,0,0,0,0,0,0,0],"id":12,"left_children":[1,3,5,7,-1,9,11,-1,-1,-1,-1,-1,-1],"loss_changes":[1.5530933E1,5.5327907E0,3.352404E0,4.469409E0,0E0,3.033475E0,1.492939E0,0E0,0E0,0E0,0E0,0E0,0E0],"parents":[2147483647,0,0,1,1,2,2,3,3,5,5,6,6],"right_children":[2,4,6,8,-1,10,12,-1,-1,-1,-1,-1,-1],"split_conditions":[-1.861378E-1,1.5421784E0,9.813576E-1,8.140547E-1,-1.0702213E-1,-4.2596063E-1,-8.5404295E-1,1.4098003E-2,5.8562722E-2,3.5519626E-2,-2.2626927E-2,-9.04436E-2,-3.8850985E-2],"split_indices":[0,6,0,6,0,8,3,0,0,0,0,0,0],"split_type":[0,0,0,0,0,0,0,0,0,0,0,0,0],"sum_hessian":[1.97E2,9.7E1,1E2,9.5E1,2E0,5.9E1,4.1E1,5.8E1,3.7E1,1E1,4.9E1,7E0,3.4E1],"tree_param":{"num_deleted":"0","num_feature":"9","num_nodes":"13","size_leaf_vector":"1"}},{"base_weights":[-4.7552623E-3,1.7069875E-1,-3.7477925E-1,1.4377569E-1,1.3073878E-1,-2.9402724E-1,-7.002024E-1,4.5797992E-3,4.935647E-2,-2.5656733E-3,-4.8365608E-2,-7.4980974E-2,-7.726082E-3],"categories":[],"categories_nodes":[],"categories_segments":[],"categories_sizes":[],"default_left":[0,0,0,0,0,0,0,0,0,0,0,0,0],"id":13,"left_children":[1,3,5,7,-1,9,11,-1,-1,-1,-1,-1,-1],"loss_changes":[1.2918569E1,3.9434533E0,1.4759512E0,4.535509E0,0E0,2.6848025E0,3.1289864E-1,0E0,0E0,0E0,0E0,0E0,0E0],"parents":[2147483647,0,0,1,1,2,2,3,3,5,5,6,6],"right_children":[2,4,6,8,-1,10,12,-1,-1,-1,-1,-1,-1],"split_conditions":[3.61639E-1,3.3223513E-1,1.0683957E0,9.8385465E-1,1.3073878E-1,-3.7816814E-1,1.551205E0,4.5797992E-3,4.935647E-2,-2.5656733E-3,-4.8365608E-2,-7.4980974E-2,-7.726082E-3],"split_indices":[0,0,6,1,0,8,6,0,0,0,0,0,0],"split_type":[0,0,0,0,0,0,0,0,0,0,0,0,0],"sum_hessian":[1.97E2,1.34E2,6.3E1,1.32E2,2E0,5.2E1,1.1E1,1.04E2,2.8E1,2.2E1,3E1,1E1,1E0],"tree_param":{"num_deleted":"0","num_feature":"9","num_nodes":"13","size_leaf_vector":"1"}},{"base_weights":[-4.02197E-3,2.3405434E-1,-2.3498689E-1,2.7024066E-1,-1.0019264E-1,-1.7025638E-1,-6.60066E-1,4.3537878E-2,2.8162897E-3,-3.8033046E-2,3.4385268E-3,-3.7723437E-2,-1.2021287E-1],"categories":[],"categories_nodes":[],"categories_segments":[],"categories_sizes":[],"default_left":[0,0,0,0,0,0,0,0,0,0,0,0,0],"id":14,"left_children":[1,3,5,7,-1,9,11,-1,-1,-1,-1,-1,-1],"loss_changes":[1.0942481E1,4.6538706E0,2.6666937E0,3.82546E0,0E0,3.839179E0,1.539578E0,0E0,0E0,0E0,0E0,0E0,0E0],"parents":[2147483647,0,0,1,1,2,2,3,3,5,5,6,6],"right_children":[2,4,6,8,-1,10,12,-1,-1,-1,-1,-1,-1],"split_conditions":[-1.861378E-1,1.5421784E0,1.2730483E0,-3.2974362E-1,-1.0019264E-1,-3.3550647E-1,3.9835063E-1,4.3537878E-2,2.8162897E-3,-3.8033046E-2,3.4385268E-3,-3.7723437E-2,-1.2021287E-1],"split_indices":[0,6,6,8,0,2,7,0,0,0,0,0,0],"split_type":[0,0,0,0,0,0,0,0,0,0,0,0,0],"sum_hessian":[1.97E2,9.7E1,1E2,9.5E1,2E0,8.8E1,1.2E1,5.6E1,3.9E1,4.3E1,4.5E1,9E0,3E0],"tree_param":{"num_deleted":"0","num_feature":"9","num_nodes":"13","size_leaf_vector":"1"}},{"base_weights":[-4.864031E-3,1.4218436E-1,-3.1496823E-1,1.1685023E-1,1.2179364E-1,-1.7129432E-1,-4.447439E-1,3.1428419E-3,4.2210676E-2,-3.1858202E-2,5.2004933E-2,-1.5216692E-2,-5.6533534E-2],"categories":[],"categories_nodes":[],"categories_segments":[],"categories_sizes":[],"default_left":[0,0,0,0,0,0,0,0,0,0,0,0,0],"id":15,"left_children":[1,3,5,7,-1,9,11,-1,-1,-1,-1,-1,-1],"loss_changes":[9.0736475E0,3.5368726E0,1.1171222E0,3.454784E0,0E0,3.4241238E0,1.0782895E0,0E0,0E0,0E0,0E0,0E0,0E0],"parents":[2147483647,0,0,1,1,2,2,3,3,5,5,6,6],"right_children":[2,4,6,8,-1,10,12,-1,-1,-1,-1,-1,-1],"split_conditions":[3.61639E-1,3.3223513E-1,-3.7816814E-1,9.8385465E-1,1.2179364E-1,7.938232E-1,-7.003461E-2,3.1428419E-3,4.2210676E-2,-3.1858202E-2,5.2004933E-2,-1.5216692E-2,-5.6533534E-2],"split_indices":[0,0,8,1,0,5,4,0,0,0,0,0,0],"split_type":[0,0,0,0,0,0,0,0,0,0,0,0,0],"sum_hessian":[1.97E2,1.34E2,6.3E1,1.32E2,2E0,3.1E1,3.2E1,1.04E2,2.8E1,2.6E1,5E0,1E1,2.2E1],"tree_param":{"num_deleted":"0","num_feature":"9","num_nodes":"13","size_leaf_vector":"1"}},{"base_weights":[-3.7940564E-3,1.9622526E-1,-1.9783463E-1,2.296016E-1,-9.3722664E-2,-1.3916762E-1,-5.8426E-1,7.2545856E-3,4.6740916E-2,-5.3491898E-2,-5.1719123E-3,-3.2327525E-2,-1.09065674E-1],"categories":[],"categories_nodes":[],"categories_segments":[],"categories_sizes":[],"default_left":[0,0,0,0,0,0,0,0,0,0,0,0,0],"id":16,"left_children":[1,3,5,7,-1,9,11,-1,-1,-1,-1,-1,-1],"loss_changes":[7.723569E0,3.9225767E0,2.208402E0,3.5516E0,0E0,3.052434E0,1.3655219E0,0E0,0E0,0E0,0E0,0E0,0E0],"parents":[2147483647,0,0,1,1,2,2,3,3,5,5,6,6],"right_children":[2,4,6,8,-1,10,12,-1,-1,-1,-1,-1,-1],"split_conditions":[-1.861378E-1,1.5421784E0,1.2730483E0,8.140547E-1,-9.3722664E-2,-1.0229032E0,3.9835063E-1,7.2545856E-3,4.6740916E-2,-5.3491898E-2,-5.1719123E-3,-3.2327525E-2,-1.09065674E-1],"split_indices":[0,6,6,6,0,1,7,0,0,0,0,0,0],"split_type":[0,0,0,0,0,0,0,0,0,0,0,0,0],"sum_hessian":[1.97E2,9.7E1,1E2,9.5E1,2E0,8.8E1,1.2E1,5.8E1,3.7E1,1.5E1,7.3E1,9E0,3E0],"tree_param":{"num_deleted":"0","num_feature":"9","num_nodes":"13","size_leaf_vector":"1"}},{"base_weights":[-4.6256944E-3,1.1398301E-1,-2.7287775E-1,3.6388063E-1,2.8786857E-2,-4.113605E-1,-1.5825169E-1,5.050393E-2,-5.84079E-2,9.822114E-3,-2.5032109E-2,2.2708489E-2,-5.0062805E-2,-2.3084199E-2,6.929921E-2],"categories":[],"categories_nodes":[],"categories_segments":[],"categories_sizes":[],"default_left":[0,0,0,0,0,0,0,0,0,0,0,0,0,0,0],"id":17,"left_children":[1,3,5,7,9,11,13,-1,-1,-1,-1,-1,-1,-1,-1],"loss_changes":[6.330875E0,2.927589E0,9.031992E-1,4.978426E0,2.0400715E0,1.6524816E0,2.3226933E0,0E0,0E0,0E0,0E0,0E0,0E0,0E0,0E0],"parents":[2147483647,0,0,1,1,2,2,3,3,4,4,5,5,6,6],"right_children":[2,4,6,8,10,12,14,-1,-1,-1,-1,-1,-1,-1,-1],"split_conditions":[5.0016E-1,-4.2596063E-1,-2.3775554E-1,1.3384147E0,7.648902E-1,-4.7232336E-1,1.0785246E0,5.050393E-2,-5.84079E-2,9.822114E-3,-2.5032109E-2,2.2708489E-2,-5.0062805E-2,-2.3084199E-2,6.929921E-2],"split_indices":[0,8,3,6,5,8,7,0,0,0,0,0,0,0,0],"split_type":[0,0,0,0,0,0,0,0,0,0,0,0,0,0,0],"sum_hessian":[1.97E2,1.37E2,6E1,3.4E1,1.03E2,2.6E1,3.4E1,3E1,4E0,8.3E1,2E1,3E0,2.3E1,3.2E1,2E0],"tree_param":{"num_deleted":"0","num_feature":"9","num_nodes":"15","size_leaf_vector":"1"}},{"base_weights":[-4.18463E-3,1.6393599E-1,-1.6727014E-1,1.94181E-1,-8.585496E-2,-1.8556899E-1,8.313071E-2,5.437573E-3,4.0613707E-2,-9.839398E-3,-3.9560456E-2],"categories":[],"categories_nodes":[],"categories_segments":[],"categories_sizes":[],"default_left":[0,0,0,0,0,0,0,0,0,0,0],"id":18,"left_children":[1,3,5,7,-1,9,-1,-1,-1,-1,-1],"loss_changes":[5.4561934E0,3.1973722E0,1.9998181E0,2.822643E0,0E0,1.7920597E0,0E0,0E0,0E0,0E0,0E0],"parents":[2147483647,0,0,1,1,2,2,3,3,5,5],"right_children":[2,4,6,8,-1,10,-1,-1,-1,-1,-1],"split_conditions":[-1.861378E-1,1.5421784E0,1.652774E0,8.140547E-1,-8.585496E-2,3.9835063E-1,8.313071E-2,5.437573E-3,4.0613707E-2,-9.839398E-3,-3.9560456E-2],"split_indices":[0,6,1,6,0,7,0,0,0,0,0],"split_type":[0,0,0,0,0,0,0,0,0,0,0],"sum_hessian":[1.97E2,9.7E1,1E2,9.5E1,2E0,9.9E1,1E0,5.8E1,3.7E1,7.1E1,2.8E1],"tree_param":{"num_deleted":"0","num_feature":"9","num_nodes":"11","size_leaf_vector":"1"}},{"base_weights":[-3.7968429E-3,9.868152E-2,-2.199028E-1,7.0730895E-2,9.9638146E-1,-1.5507817E-1,-4.8788637E-1,2.068333E-3,4.5972306E-2,3.0280387E-2,1.1266394E-1,5.2115317E-3,-3.0379985E-2,-2.0000793E-2,-6.0682457E-2],"categories":[],"categories_nodes":[],"categories_segments":[],"categories_sizes":[],"default_left":[0,0,0,0,0,0,0,0,0,0,0,0,0,0,0],"id":19,"left_children":[1,3,5,7,9,11,13,-1,-1,-1,-1,-1,-1,-1,-1],"loss_changes":[4.406645E0,3.3168461E0,1.0361433E0,2.560282E0,2.0225048E-2,1.6489831E0,2.895074E-1,0E0,0E0,0E0,0E0,0E0,0E0,0E0,0E0],"parents":[2147483647,0,0,1,1,2,2,3,3,4,4,5,5,6,6],"right_children":[2,4,6,8,10,12,14,-1,-1,-1,-1,-1,-1,-1,-1],"split_conditions":[3.61639E-1,2.847114E-1,1.0683957E0,1.6111066E0,3.3223513E-1,-3.7816814E-1,-8.5567343E-1,2.068333E-3,4.5972306E-2,3.0280387E-2,1.1266394E-1,5.2115317E-3,-3.0379985E-2,-2.0000793E-2,-6.0682457E-2],"split_indices":[0,0,6,3,0,8,1,0,0,0,0,0,0,0,0],"split_type":[0,0,0,0,0,0,0,0,0,0,0,0,0,0,0],"sum_hessian":[1.97E2,1.34E2,6.3E1,1.31E2,3E0,5.2E1,1.1E1,1.17E2,1.4E1,1E0,2E0,2.2E1,3E1,4E0,7E0],"tree_param":{"num_deleted":"0","num_feature":"9","num_nodes":"15","size_leaf_vector":"1"}},{"base_weights":[-2.9871573E-3,1.3926505E-1,-1.4098448E-1,1.6725051E-1,-8.026918E-2,-1.5816846E-1,7.8870766E-2,4.228395E-2,5.5789794E-3,-3.0387787E-3,-2.7553549E-2],"categories":[],"categories_nodes":[],"categories_segments":[],"categories_sizes":[],"default_left":[0,0,0,0,0,0,0,0,0,0,0],"id":20,"left_children":[1,3,5,7,-1,9,-1,-1,-1,-1,-1],"loss_changes":[3.906458E0,2.7176394E0,1.7383072E0,2.7112699E0,0E0,1.4913509E0,0E0,0E0,0E0,0E0,0E0],"parents":[2147483647,0,0,1,1,2,2,3,3,5,5],"right_children":[2,4,6,8,-1,10,-1,-1,-1,-1,-1],"split_conditions":[-1.861378E-1,1.5421784E0,1.652774E0,-1.1177986E-1,-8.026918E-2,1.4328538E-1,7.8870766E-2,4.228395E-2,5.5789794E-3,-3.0387787E-3,-2.7553549E-2],"split_indices":[0,6,1,7,0,7,0,0,0,0,0],"split_type":[0,0,0,0,0,0,0,0,0,0,0],"sum_hessian":[1.97E2,9.7E1,1E2,9.5E1,2E0,9.9E1,1E0,2.8E1,6.7E1,4.8E1,5.1E1],"tree_param":{"num_deleted":"0","num_feature":"9","num_nodes":"11","size_leaf_vector":"1"}},{"base_weights":[-2.6082878E-3,4.6724044E-2,-3.307577E-1,1.471679E-1,-1.4489803E-1,-3.7292284E-1,3.6168516E-2,4.159785E-3,3.747475E-2,-2.235793E-2,1.0125344E-1,-6.4691454E-2,-2.8992847E-2],"categories":[],"categories_nodes":[],"categories_segments":[],"categories_sizes":[],"default_left":[0,0,0,0,0,0,0,0,0,0,0,0,0],"id":21,"left_children":[1,3,5,7,9,11,-1,-1,-1,-1,-1,-1,-1],"loss_changes":[3.2207527E0,3.3511007E0,8.9400077E-1,2.7233288E0,5.6904764E0,3.809352E-1,0E0,0E0,0E0,0E0,0E0,0E0,0E0],"parents":[2147483647,0,0,1,1,2,2,3,3,4,4,5,5],"right_children":[2,4,6,8,10,12,-1,-1,-1,-1,-1,-1,-1],"split_conditions":[1.2783029E0,4.833724E-1,1.0785246E0,8.3641523E-1,1.652774E0,-8.5404295E-1,3.6168516E-2,4.159785E-3,3.747475E-2,-2.235793E-2,1.0125344E-1,-6.4691454E-2,-2.8992847E-2],"split_indices":[0,7,7,6,1,3,0,0,0,0,0,0,0],"split_type":[0,0,0,0,0,0,0,0,0,0,0,0,0],"sum_hessian":[1.97E2,1.72E2,2.5E1,1.13E2,5.9E1,2.4E1,1E0,7.8E1,3.5E1,5.6E1,3E0,4E0,2E1],"tree_param":{"num_deleted":"0","num_feature":"9","num_nodes":"13","size_leaf_vector":"1"}},{"base_weights":[-2.0291794E-3,1.206302E-1,-1.21025115E-1,-1.4977935E-1,2.1035463E-1,-7.147993E-2,-4.509094E-1,-2.9705344E-2,6.97673E-2,6.729129E-2,9.120916E-3,-2.2973003E-2,8.144363E-3,-2.2774296E-2,-8.9609824E-2],"categories":[],"categories_nodes":[],"categories_segments":[],"categories_sizes":[],"default_left":[0,0,0,0,0,0,0,0,0,0,0,0,0,0,0],"id":22,"left_children":[1,3,5,7,9,11,13,-1,-1,-1,-1,-1,-1,-1,-1],"loss_changes":[2.9046006E0,2.409217E0,1.6185308E0,3.3274403E0,4.0168915E0,2.172525E0,1.0874858E0,0E0,0E0,0E0,0E0,0E0,0E0,0E0,0E0],"parents":[2147483647,0,0,1,1,2,2,3,3,4,4,5,5,6,6],"right_children":[2,4,6,8,10,12,14,-1,-1,-1,-1,-1,-1,-1,-1],"split_conditions":[-1.861378E-1,-2.3775554E-1,1.2730483E0,9.8385465E-1,-1.9524295E-2,-3.3550647E-1,3.9835063E-1,-2.9705344E-2,6.97673E-2,6.729129E-2,9.120916E-3,-2.2973003E-2,8.144363E-3,-2.2774296E-2,-8.9609824E-2],"split_indices":[0,3,6,1,1,2,7,0,0,0,0,0,0,0,0],"split_type":[0,0,0,0,0,0,0,0,0,0,0,0,0,0,0],"sum_hessian":[1.97E2,9.7E1,1E2,2.4E1,7.3E1,8.8E1,1.2E1,2.1E1,3E0,1.4E1,5.9E1,4.3E1,4.5E1,9E0,3E0],"tree_param":{"num_deleted":"0","num_feature":"9","num_nodes":"15","size_leaf_vector":"1"}},{"base_weights":[-1.880506E-3,3.6457025E-2,-3.2674718E-1,3.098678E-1,-4.5037895E-2,-4.7484353E-1,4.2137325E-2,2.1079082E-2,1.1736324E-1,-3.8138825E-2,-3.987144E-4,-2.6252607E-2,-7.709815E-2],"categories":[],"categories_nodes":[],"categories_segments":[],"categories_sizes":[],"default_left":[0,0,0,0,0,0,0,0,0,0,0,0,0],"id":23,"left_children":[1,3,5,7,9,11,-1,-1,-1,-1,-1,-1,-1],"loss_changes":[2.4779203E0,3.9800792E0,2.526759E0,3.2613559E0,1.9039054E0,9.293518E-1,0E0,0E0,0E0,0E0,0E0,0E0,0E0],"parents":[2147483647,0,0,1,1,2,2,3,3,4,4,5,5],"right_children":[2,4,6,8,10,12,-1,-1,-1,-1,-1,-1,-1],"split_conditions":[1.3384147E0,-4.2596063E-1,6.5341586E-1,1.2452422E0,-1.0229032E0,3.9835063E-1,4.2137325E-2,2.1079082E-2,1.1736324E-1,-3.8138825E-2,-3.987144E-4,-2.6252607E-2,-7.709815E-2],"split_indices":[6,8,7,6,1,7,0,0,0,0,0,0,0],"split_type":[0,0,0,0,0,0,0,0,0,0,0,0,0],"sum_hessian":[1.97E2,1.77E2,2E1,4E1,1.37E2,1.7E1,3E0,3.7E1,3E0,1.4E1,1.23E2,1.1E1,6E0],"tree_param":{"num_deleted":"0","num_feature":"9","num_nodes":"13","size_leaf_vector":"1"}},{"base_weights":[-1.4970733E-3,3.9740972E-2,-2.758311E-1,1.2673505E-1,-1.262101E-1,-3.140426E-1,3.3972807E-2,-9.571879E-3,2.2650218E-2,-1.9569393E-2,8.9548685E-2,-5.562369E-2,-2.4142288E-2],"categories":[],"categories_nodes":[],"categories_segments":[],"categories_sizes":[],"default_left":[0,0,0,0,0,0,0,0,0,0,0,0,0],"id":24,"left_children":[1,3,5,7,9,11,-1,-1,-1,-1,-1,-1,-1],"loss_changes":[2.250936E0,2.5135546E0,7.182462E-1,2.5517488E0,4.4347253E0,3.0541372E-1,0E0,0E0,0E0,0E0,0E0,0E0,0E0],"parents":[2147483647,0,0,1,1,2,2,3,3,4,4,5,5],"right_children":[2,4,6,8,10,12,-1,-1,-1,-1,-1,-1,-1],"split_conditions":[1.2783029E0,4.833724E-1,1.0785246E0,-6.219104E-1,1.652774E0,-8.5404295E-1,3.3972807E-2,-9.571879E-3,2.2650218E-2,-1.9569393E-2,8.9548685E-2,-5.562369E-2,-2.4142288E-2],"split_indices":[0,7,7,7,1,3,0,0,0,0,0,0,0],"split_type":[0,0,0,0,0,0,0,0,0,0,0,0,0],"sum_hessian":[1.97E2,1.72E2,2.5E1,1.13E2,5.9E1,2.4E1,1E0,3.5E1,7.8E1,5.6E1,3E0,4E0,2E1],"tree_param":{"num_deleted":"0","num_feature":"9","num_nodes":"13","size_leaf_vector":"1"}},{"base_weights":[-1.1591815E-3,1.0272068E-1,-1.01942025E-1,1.2683545E-1,-7.031925E-2,-1.1596141E-1,6.499983E-2,2.038585E-2,-1.7604502E-2,-9.972218E-4,-2.1360582E-2],"categories":[],"categories_nodes":[],"categories_segments":[],"categories_sizes":[],"default_left":[0,0,0,0,0,0,0,0,0,0,0],"id":25,"left_children":[1,3,5,7,-1,9,-1,-1,-1,-1,-1],"loss_changes":[2.0833945E0,1.9937627E0,1.1400908E0,2.2754507E0,0E0,1.032795E0,0E0,0E0,0E0,0E0,0E0],"parents":[2147483647,0,0,1,1,2,2,3,3,5,5],"right_children":[2,4,6,8,-1,10,-1,-1,-1,-1,-1],"split_conditions":[-1.861378E-1,1.5421784E0,1.652774E0,7.648902E-1,-7.031925E-2,1.4328538E-1,6.499983E-2,2.038585E-2,-1.7604502E-2,-9.972218E-4,-2.1360582E-2],"split_indices":[0,6,1,5,0,7,0,0,0,0,0],"split_type":[0,0,0,0,0,0,0,0,0,0,0],"sum_hessian":[1.97E2,9.7E1,1E2,9.5E1,2E0,9.9E1,1E0,7.6E1,1.9E1,4.8E1,5.1E1],"tree_param":{"num_deleted":"0","num_feature":"9","num_nodes":"11","size_leaf_vector":"1"}},{"base_weights":[-1.16894E-3,-3.9380707E-2,2.4229746E-1,4.3883577E-2,-2.0813994E-1,-1.2958781E-2,7.542498E-1,2.8879726E-2,-6.118791E-3,4.5908313E-2,-2.9563839E-2,2.6971841E-2,-3.5701327E-2,1.1057378E-1,3.8455308E-3],"categories":[],"categories_nodes":[],"categories_segments":[],"categories_sizes":[],"default_left":[0,0,0,0,0,0,0,0,0,0,0,0,0,0,0],"id":26,"left_children":[1,3,5,7,9,11,13,-1,-1,-1,-1,-1,-1,-1,-1],"loss_changes":[1.8515915E0,2.426012E0,3.538108E0,3.0027504E0,3.4634392E0,1.9441637E0,2.221817E0,0E0,0E0,0E0,0E0,0E0,0E0,0E0,0E0],"parents":[2147483647,0,0,1,1,2,2,3,3,4,4,5,5,6,6],"right_children":[2,4,6,8,10,12,14,-1,-1,-1,-1,-1,-1,-1,-1],"split_conditions":[9.4075304E-1,4.833724E-1,8.140547E-1,-3.7943858E-1,-9.972668E-1,-7.720966E-1,2.227394E0,2.8879726E-2,-6.118791E-3,4.5908313E-2,-2.9563839E-2,2.6971841E-2,-3.5701327E-2,1.1057378E-1,3.8455308E-3],"split_indices":[2,7,6,0,6,6,3,0,0,0,0,0,0,0,0],"split_type":[0,0,0,0,0,0,0,0,0,0,0,0,0,0,0],"sum_hessian":[1.97E2,1.71E2,2.6E1,1.15E2,5.6E1,1.8E1,8E0,3.4E1,8.1E1,6E0,5E1,1E1,8E0,5E0,3E0],"tree_param":{"num_deleted":"0","num_feature":"9","num_nodes":"15","size_leaf_vector":"1"}},{"base_weights":[-3.2073937E-4,3.172696E-2,-2.7194786E-1,2.6182503E-1,-3.6865413E-2,-4.0089396E-1,3.7629645E-2,1.5247528E-2,8.742859E-2,2.488305E-3,-2.2647493E-2,-4.78002E-2,1.4398016E-2],"categories":[],"categories_nodes":[],"categories_segments":[],"categories_sizes":[],"default_left":[0,0,0,0,0,0,0,0,0,0,0,0,0],"id":27,"left_children":[1,3,5,7,9,11,-1,-1,-1,-1,-1,-1,-1],"loss_changes":[1.7322228E0,2.8190212E0,1.906215E0,2.6125631E0,1.6213527E0,8.2507753E-1,0E0,0E0,0E0,0E0,0E0,0E0,0E0],"parents":[2147483647,0,0,1,1,2,2,3,3,4,4,5,5],"right_children":[2,4,6,8,10,12,-1,-1,-1,-1,-1,-1,-1],"split_conditions":[1.3384147E0,-4.2596063E-1,6.5341586E-1,1.1818179E0,7.648902E-1,1.5534292E0,3.7629645E-2,1.5247528E-2,8.742859E-2,2.488305E-3,-2.2647493E-2,-4.78002E-2,1.4398016E-2],"split_indices":[6,8,7,6,5,6,0,0,0,0,0,0,0],"split_type":[0,0,0,0,0,0,0,0,0,0,0,0,0],"sum_hessian":[1.97E2,1.77E2,2E1,4E1,1.37E2,1.7E1,3E0,3.5E1,5E0,1.04E2,3.3E1,1.5E1,2E0],"tree_param":{"num_deleted":"0","num_feature":"9","num_nodes":"13","size_leaf_vector":"1"}},{"base_weights":[1.4940611E-4,-1.3121668E-1,6.100171E-2,9.127862E-3,-4.123404E-1,1.2485848E-2,4.8289093E-1,-2.972726E-2,2.017086E-2,-2.7961308E-2,-9.065282E-2,1.7660635E-2,-9.490602E-3,-1.1253443E-2,8.261867E-2],"categories":[],"categories_nodes":[],"categories_segments":[],"categories_sizes":[],"default_left":[0,0,0,0,0,0,0,0,0,0,0,0,0,0,0],"id":28,"left_children":[1,3,5,7,9,11,13,-1,-1,-1,-1,-1,-1,-1,-1],"loss_changes":[1.5908023E0,2.489377E0,2.7776623E0,2.5972557E0,1.1239595E0,2.1846611E0,2.9546716E0,0E0,0E0,0E0,0E0,0E0,0E0,0E0,0E0],"parents":[2147483647,0,0,1,1,2,2,3,3,4,4,5,5,6,6],"right_children":[2,4,6,8,10,12,14,-1,-1,-1,-1,-1,-1,-1,-1],"split_conditions":[-2.3775554E-1,4.833724E-1,1.0785246E0,-5.368886E-1,1.2920344E0,-3.9875394E-1,-4.1596082E-1,-2.972726E-2,2.017086E-2,-2.7961308E-2,-9.065282E-2,1.7660635E-2,-9.490602E-3,-1.1253443E-2,8.261867E-2],"split_indices":[3,7,7,7,6,8,8,0,0,0,0,0,0,0,0],"split_type":[0,0,0,0,0,0,0,0,0,0,0,0,0,0,0],"sum_hessian":[1.97E2,6.2E1,1.35E2,4.2E1,2E1,1.22E2,1.3E1,1.6E1,2.6E1,1.7E1,3E0,4.8E1,7.4E1,5E0,8E0],"tree_param":{"num_deleted":"0","num_feature":"9","num_nodes":"15","size_leaf_vector":"1"}},{"base_weights":[-1.1119984E-4,3.0836841E-2,-2.490972E-1,1.0209047E-1,-1.0297377E-1,-3.173012E-1,1.371462E-1,-8.35893E-3,1.8335445E-2,-1.6672483E-2,6.571332E-2,-1.9343479E-2,-5.0201017E-2,2.8995043E-2,-1.0438681E-3],"categories":[],"categories_nodes":[],"categories_segments":[],"categories_sizes":[],"default_left":[0,0,0,0,0,0,0,0,0,0,0,0,0,0,0],"id":29,"left_children":[1,3,5,7,9,11,13,-1,-1,-1,-1,-1,-1,-1,-1],"loss_changes":[1.5333959E0,1.6981176E0,6.230705E-1,1.7656589E0,3.1139326E0,3.3759916E-1,9.323307E-2,0E0,0E0,0E0,0E0,0E0,0E0,0E0,0E0],"parents":[2147483647,0,0,1,1,2,2,3,3,4,4,5,5,6,6],"right_children":[2,4,6,8,10,12,14,-1,-1,-1,-1,-1,-1,-1,-1],"split_conditions":[1.4205709E0,4.833724E-1,3.9835063E-1,-6.219104E-1,1.4855441E0,-2.6758114E-2,1.8391804E0,-8.35893E-3,1.8335445E-2,-1.6672483E-2,6.571332E-2,-1.9343479E-2,-5.0201017E-2,2.8995043E-2,-1.0438681E-3],"split_indices":[0,7,7,7,1,7,0,0,0,0,0,0,0,0,0],"split_type":[0,0,0,0,0,0,0,0,0,0,0,0,0,0,0],"sum_hessian":[1.97E2,1.76E2,2.1E1,1.15E2,6.1E1,1.8E1,3E0,3.5E1,8E1,5.7E1,4E0,1.2E1,6E0,1E0,2E0],"tree_param":{"num_deleted":"0","num_feature":"9","num_nodes":"15","size_leaf_vector":"1"}},{"base_weights":[-1.2068586E-5,-2.4597546E-1,2.7469942E-2,1.7875686E-2,-2.9358894E-1,2.8764755E-1,-1.46714095E-2,2.7891777E-3,-6.08629E-4,-3.3486933E-2,1.0675957E-3,-1.0462158E-2,6.577899E-2,-3.1129152E-2,3.4136903E-3],"categories":[],"categories_nodes":[],"categories_segments":[],"categories_sizes":[],"default_left":[0,0,0,0,0,0,0,0,0,0,0,0,0,0,0],"id":30,"left_children":[1,3,5,7,9,11,13,-1,-1,-1,-1,-1,-1,-1,-1],"loss_changes":[1.3451515E0,2.565056E-1,1.9668183E0,1.1297786E-3,2.1709788E-1,3.698705E0,2.2546432E0,0E0,0E0,0E0,0E0,0E0,0E0,0E0,0E0],"parents":[2147483647,0,0,1,1,2,2,3,3,4,4,5,5,6,6],"right_children":[2,4,6,8,10,12,14,-1,-1,-1,-1,-1,-1,-1,-1],"split_conditions":[-1.0229032E0,-4.80202E-1,-6.320112E-1,1.3966008E0,9.929014E-1,-6.0510254E-1,-3.3550647E-1,2.7891777E-3,-6.08629E-4,-3.3486933E-2,1.0675957E-3,-1.0462158E-2,6.577899E-2,-3.1129152E-2,3.4136903E-3],"split_indices":[1,8,2,0,5,6,2,0,0,0,0,0,0,0,0],"split_type":[0,0,0,0,0,0,0,0,0,0,0,0,0,0,0],"sum_hessian":[1.97E2,1.9E1,1.78E2,3E0,1.6E1,2.4E1,1.54E2,2E0,1E0,1.4E1,2E0,1.2E1,1.2E1,2.1E1,1.33E2],"tree_param":{"num_deleted":"0","num_feature":"9","num_nodes":"15","size_leaf_vector":"1"}},{"base_weights":[-2.4177209E-5,2.8509425E-2,-2.4187928E-1,2.1973713E-1,-2.851119E-2,-3.5324356E-1,3.1972975E-2,1.2161209E-2,7.718645E-2,2.5172331E-3,-1.9345997E-2,-4.1755144E-2,1.0747973E-2],"categories":[],"categories_nodes":[],"categories_segments":[],"categories_sizes":[],"default_left":[0,0,0,0,0,0,0,0,0,0,0,0,0],"id":31,"left_children":[1,3,5,7,9,11,-1,-1,-1,-1,-1,-1,-1],"loss_changes":[1.3732933E0,1.9471629E0,1.4263493E0,2.1274104E0,1.2268641E0,5.781846E-1,0E0,0E0,0E0,0E0,0E0,0E0,0E0],"parents":[2147483647,0,0,1,1,2,2,3,3,4,4,5,5],"right_children":[2,4,6,8,10,12,-1,-1,-1,-1,-1,-1,-1],"split_conditions":[1.3384147E0,-4.2596063E-1,6.5341586E-1,1.1818179E0,7.648902E-1,1.5534292E0,3.1972975E-2,1.2161209E-2,7.718645E-2,2.5172331E-3,-1.9345997E-2,-4.1755144E-2,1.0747973E-2],"split_indices":[6,8,7,6,5,6,0,0,0,0,0,0,0],"split_type":[0,0,0,0,0,0,0,0,0,0,0,0,0],"sum_hessian":[1.97E2,1.77E2,2E1,4E1,1.37E2,1.7E1,3E0,3.5E1,5E0,1.04E2,3.3E1,1.5E1,2E0],"tree_param":{"num_deleted":"0","num_feature":"9","num_nodes":"13","size_leaf_vector":"1"}},{"base_weights":[3.4937728E-4,-3.0122137E-2,1.9445127E-1,-2.2322214E-3,-3.7106556E-1,-2.2762552E-2,6.314081E-1,6.3651176E-3,-1.4844871E-2,-8.0335975E-2,-8.967261E-3,2.3906723E-2,-3.4024756E-2,9.403653E-2,1.0120332E-3],"categories":[],"categories_nodes":[],"categories_segments":[],"categories_sizes":[],"default_left":[0,0,0,0,0,0,0,0,0,0,0,0,0,0,0],"id":32,"left_children":[1,3,5,7,9,11,13,-1,-1,-1,-1,-1,-1,-1,-1],"loss_changes":[1.1769439E0,1.6346996E0,2.5770252E0,1.5507671E0,1.5093392E0,1.6607555E0,1.7180448E0,0E0,0E0,0E0,0E0,0E0,0E0,0E0,0E0],"parents":[2147483647,0,0,1,1,2,2,3,3,4,4,5,5,6,6],"right_children":[2,4,6,8,10,12,14,-1,-1,-1,-1,-1,-1,-1,-1],"split_conditions":[9.4075304E-1,7.731634E-1,8.140547E-1,4.833724E-1,-9.033106E-1,-7.720966E-1,2.227394E0,6.3651176E-3,-1.4844871E-2,-8.0335975E-2,-8.967261E-3,2.3906723E-2,-3.4024756E-2,9.403653E-2,1.0120332E-3],"split_indices":[2,2,6,7,0,6,3,0,0,0,0,0,0,0,0],"split_type":[0,0,0,0,0,0,0,0,0,0,0,0,0,0,0],"sum_hessian":[1.97E2,1.71E2,2.6E1,1.59E2,1.2E1,1.8E1,8E0,1.1E2,4.9E1,4E0,8E0,1E1,8E0,5E0,3E0],"tree_param":{"num_deleted":"0","num_feature":"9","num_nodes":"15","size_leaf_vector":"1"}},{"base_weights":[2.4954733E-4,-1.11751206E-1,5.2130416E-2,3.7530737E-3,-3.4293848E-1,7.378179E-3,4.4158718E-1,1.9953353E-2,-2.1085186E-2,-2.248556E-2,-7.88577E-2,1.6948666E-2,-6.9904174E-3,6.7859176E-3,9.2858136E-2],"categories":[],"categories_nodes":[],"categories_segments":[],"categories_sizes":[],"default_left":[0,0,0,0,0,0,0,0,0,0,0,0,0,0,0],"id":33,"left_children":[1,3,5,7,9,11,13,-1,-1,-1,-1,-1,-1,-1,-1],"loss_changes":[1.1563436E0,1.6835836E0,2.3670943E0,1.8487366E0,9.27752E-1,1.552807E0,2.485034E0,0E0,0E0,0E0,0E0,0E0,0E0,0E0,0E0],"parents":[2147483647,0,0,1,1,2,2,3,3,4,4,5,5,6,6],"right_children":[2,4,6,8,10,12,14,-1,-1,-1,-1,-1,-1,-1,-1],"split_conditions":[-2.3775554E-1,4.833724E-1,1.0785246E0,1.652146E-1,1.2920344E0,-1.9680162E-1,-3.6472374E-1,1.9953353E-2,-2.1085186E-2,-2.248556E-2,-7.88577E-2,1.6948666E-2,-6.9904174E-3,6.7859176E-3,9.2858136E-2],"split_indices":[3,7,7,5,6,7,8,0,0,0,0,0,0,0,0],"split_type":[0,0,0,0,0,0,0,0,0,0,0,0,0,0,0],"sum_hessian":[1.97E2,6.2E1,1.35E2,4.2E1,2E1,1.22E2,1.3E1,2.2E1,2E1,1.7E1,3E0,3.9E1,8.3E1,8E0,5E0],"tree_param":{"num_deleted":"0","num_feature":"9","num_nodes":"15","size_leaf_vector":"1"}},{"base_weights":[2.6059648E-4,4.1480348E-2,-1.294153E-1,3.4863824E-1,5.0391243E-3,-3.805937E-1,-6.9664784E-2,5.5085756E-2,-2.064158E-2,4.3950077E-2,-3.6709507E-3,2.3570657E-4,-5.724619E-2,-2.3615373E-2,9.221348E-3],"categories":[],"categories_nodes":[],"categories_segments":[],"categories_sizes":[],"default_left":[0,0,0,0,0,0,0,0,0,0,0,0,0,0,0],"id":34,"left_children":[1,3,5,7,9,11,13,-1,-1,-1,-1,-1,-1,-1,-1],"loss_changes":[1.0637194E0,1.6884177E0,6.938718E-1,1.9095882E0,2.482926E0,6.62634E-1,1.099814E0,0E0,0E0,0E0,0E0,0E0,0E0,0E0,0E0],"parents":[2147483647,0,0,1,1,2,2,3,3,4,4,5,5,6,6],"right_children":[2,4,6,8,10,12,14,-1,-1,-1,-1,-1,-1,-1,-1],"split_conditions":[7.985057E-1,-9.752395E-1,-4.74293E-1,-1.8092042E-1,-1.3348573E0,-1.0229032E0,-2.3775554E-1,5.5085756E-2,-2.064158E-2,4.3950077E-2,-3.6709507E-3,2.3570657E-4,-5.724619E-2,-2.3615373E-2,9.221348E-3],"split_indices":[0,6,8,8,5,1,3,0,0,0,0,0,0,0,0],"split_type":[0,0,0,0,0,0,0,0,0,0,0,0,0,0,0],"sum_hessian":[1.97E2,1.5E2,4.7E1,1.5E1,1.35E2,8E0,3.9E1,1.1E1,4E0,1.1E1,1.24E2,3E0,5E0,1.9E1,2E1],"tree_param":{"num_deleted":"0","num_feature":"9","num_nodes":"15","size_leaf_vector":"1"}},{"base_weights":[2.5129033E-4,2.966687E-2,-1.7219353E-1,-2.7283505E-2,2.216613E-1,-1.2518571E-1,-8.892493E-2,-4.805779E-3,6.49508E-2,5.578158E-2,-1.1677588E-3,7.306363E-2,-1.4633966E-2],"categories":[],"categories_nodes":[],"categories_segments":[],"categories_sizes":[],"default_left":[0,0,0,0,0,0,0,0,0,0,0,0,0],"id":35,"left_children":[1,3,5,7,9,-1,11,-1,-1,-1,-1,-1,-1],"loss_changes":[1.0094762E0,1.864854E0,2.4958389E0,1.8871155E0,3.0655928E0,0E0,1.4244577E0,0E0,0E0,0E0,0E0,0E0,0E0],"parents":[2147483647,0,0,1,1,2,2,3,3,4,4,6,6],"right_children":[2,4,6,8,10,-1,12,-1,-1,-1,-1,-1,-1],"split_conditions":[1.2531357E0,8.3641523E-1,1.2656374E0,3.629013E0,-2.6758114E-2,-1.2518571E-1,1.2730483E0,-4.805779E-3,6.49508E-2,5.578158E-2,-1.1677588E-3,7.306363E-2,-1.4633966E-2],"split_indices":[6,6,6,8,7,0,6,0,0,0,0,0,0],"split_type":[0,0,0,0,0,0,0,0,0,0,0,0,0],"sum_hessian":[1.97E2,1.69E2,2.8E1,1.31E2,3.8E1,1E0,2.7E1,1.28E2,3E0,1.5E1,2.3E1,1E0,2.6E1],"tree_param":{"num_deleted":"0","num_feature":"9","num_nodes":"13","size_leaf_vector":"1"}},{"base_weights":[4.686103E-4,-3.7487637E-2,1.4150621E-2,1.3381685E-1,-4.2593323E-2,-3.4052015E-3,4.405808E-2,-6.9647483E-3,4.466014E-2],"categories":[],"categories_nodes":[],"categories_segments":[],"categories_sizes":[],"default_left":[0,0,0,0,0,0,0,0,0],"id":36,"left_children":[1,-1,3,5,7,-1,-1,-1,-1],"loss_changes":[1.0221286E0,0E0,1.3094438E0,3.2077613E0,1.764857E0,0E0,0E0,0E0,0E0],"parents":[2147483647,0,0,2,2,3,3,4,4],"right_children":[2,-1,4,6,8,-1,-1,-1,-1],"split_conditions":[-2.3223453E0,-3.7487637E-2,-1.1177986E-1,-5.368886E-1,8.9276713E-1,-3.4052015E-3,4.405808E-2,-6.9647483E-3,4.466014E-2],"split_indices":[7,0,7,7,5,0,0,0,0],"split_type":[0,0,0,0,0,0,0,0,0],"sum_hessian":[1.97E2,6E0,1.91E2,6.1E1,1.3E2,4E1,2.1E1,1.24E2,6E0],"tree_param":{"num_deleted":"0","num_feature":"9","num_nodes":"9","size_leaf_vector":"1"}},{"base_weights":[6.280873E-4,-2.1712323E-1,2.4954334E-2,2.2766963E-3,-2.559748E-1,2.5510874E-1,-1.2328342E-2,3.1877887E-3,-4.3263435E-3,-2.9785663E-2,3.875938E-3,5.8024116E-2,-8.964741E-3,-4.8957006E-3,3.3280298E-2],"categories":[],"categories_nodes":[],"categories_segments":[],"categories_sizes":[],"default_left":[0,0,0,0,0,0,0,0,0,0,0,0,0,0,0],"id":37,"left_children":[1,3,5,7,9,11,13,-1,-1,-1,-1,-1,-1,-1,-1],"loss_changes":[1.0542386E0,1.7106336E-1,1.5391034E0,6.771315E-3,2.2139287E-1,2.8543024E0,1.9757564E0,0E0,0E0,0E0,0E0,0E0,0E0,0E0,0E0],"parents":[2147483647,0,0,1,1,2,2,3,3,4,4,5,5,6,6],"right_children":[2,4,6,8,10,12,14,-1,-1,-1,-1,-1,-1,-1,-1],"split_conditions":[-1.0229032E0,-4.80202E-1,-6.320112E-1,1.3966008E0,9.929014E-1,1.4328538E-1,1.0785246E0,3.1877887E-3,-4.3263435E-3,-2.9785663E-2,3.875938E-3,5.8024116E-2,-8.964741E-3,-4.8957006E-3,3.3280298E-2],"split_indices":[1,8,2,0,5,7,7,0,0,0,0,0,0,0,0],"split_type":[0,0,0,0,0,0,0,0,0,0,0,0,0,0,0],"sum_hessian":[1.97E2,1.9E1,1.78E2,3E0,1.6E1,2.4E1,1.54E2,2E0,1E0,1.4E1,2E0,1.2E1,1.2E1,1.4E2,1.4E1],"tree_param":{"num_deleted":"0","num_feature":"9","num_nodes":"15","size_leaf_vector":"1"}},{"base_weights":[8.197895E-4,-2.9819414E-2,1.5491943E-1,-1.9214445E-1,1.0378688E-2,6.6304046E-1,4.0503513E-2,9.354639E-3,-3.825208E-2,6.678977E-2,-2.5660468E-3,8.084139E-2,-3.191352E-3,-4.0016007E-2,2.3677696E-2],"categories":[],"categories_nodes":[],"categories_segments":[],"categories_sizes":[],"default_left":[0,0,0,0,0,0,0,0,0,0,0,0,0,0,0],"id":38,"left_children":[1,3,5,7,9,11,13,-1,-1,-1,-1,-1,-1,-1,-1],"loss_changes":[9.3947464E-1,1.0851706E0,1.8916696E0,1.8306134E0,3.1924603E0,6.319668E-1,2.516484E0,0E0,0E0,0E0,0E0,0E0,0E0,0E0,0E0],"parents":[2147483647,0,0,1,1,2,2,3,3,4,4,5,5,6,6],"right_children":[2,4,6,8,10,12,14,-1,-1,-1,-1,-1,-1,-1,-1],"split_conditions":[9.8385465E-1,-9.8336047E-1,-1.1177986E-1,-5.2121377E-1,-9.2430925E-1,1.1470172E0,3.9835063E-1,9.354639E-3,-3.825208E-2,6.678977E-2,-2.5660468E-3,8.084139E-2,-3.191352E-3,-4.0016007E-2,2.3677696E-2],"split_indices":[1,5,7,1,5,2,7,0,0,0,0,0,0,0,0],"split_type":[0,0,0,0,0,0,0,0,0,0,0,0,0,0,0],"sum_hessian":[1.97E2,1.65E2,3.2E1,3.2E1,1.33E2,5E0,2.7E1,1.3E1,1.9E1,6E0,1.27E2,4E0,1E0,8E0,1.9E1],"tree_param":{"num_deleted":"0","num_feature":"9","num_nodes":"15","size_leaf_vector":"1"}},{"base_weights":[1.2259128E-3,-9.691835E-2,4.668079E-2,9.3772245E-4,-2.9267517E-1,9.875584E-3,3.6670646E-1,-2.2557175E-2,1.4352006E-2,-1.8679578E-2,-6.9596365E-2,1.3585958E-2,-7.2565633E-3,-1.2018353E-2,6.505546E-2],"categories":[],"categories_nodes":[],"categories_segments":[],"categories_sizes":[],"default_left":[0,0,0,0,0,0,0,0,0,0,0,0,0,0,0],"id":39,"left_children":[1,3,5,7,9,11,13,-1,-1,-1,-1,-1,-1,-1,-1],"loss_changes":[8.8782907E-1,1.207102E0,1.5982693E0,1.4211127E0,7.666956E-1,1.2873703E0,2.0130255E0,0E0,0E0,0E0,0E0,0E0,0E0,0E0,0E0],"parents":[2147483647,0,0,1,1,2,2,3,3,4,4,5,5,6,6],"right_children":[2,4,6,8,10,12,14,-1,-1,-1,-1,-1,-1,-1,-1],"split_conditions":[-2.3775554E-1,4.833724E-1,1.0785246E0,-5.368886E-1,1.2920344E0,-3.9875394E-1,-4.1596082E-1,-2.2557175E-2,1.4352006E-2,-1.8679578E-2,-6.9596365E-2,1.3585958E-2,-7.2565633E-3,-1.2018353E-2,6.505546E-2],"split_indices":[3,7,7,7,6,8,8,0,0,0,0,0,0,0,0],"split_type":[0,0,0,0,0,0,0,0,0,0,0,0,0,0,0],"sum_hessian":[1.97E2,6.2E1,1.35E2,4.2E1,2E1,1.22E2,1.3E1,1.6E1,2.6E1,1.7E1,3E0,4.8E1,7.4E1,5E0,8E0],"tree_param":{"num_deleted":"0","num_feature":"9","num_nodes":"15","size_leaf_vector":"1"}},{"base_weights":[9.158473E-4,2.421891E-2,-1.866095E-1,-3.331267E-2,3.870546E-2,-4.5880443E-1,-1.00632615E-1,1.589498E-2,-2.1230471E-3,3.073126E-3,-5.8887113E-2,-1.5591874E-2,1.3184847E-2],"categories":[],"categories_nodes":[],"categories_segments":[],"categories_sizes":[],"default_left":[0,0,0,0,0,0,0,0,0,0,0,0,0],"id":40,"left_children":[1,3,5,-1,7,9,11,-1,-1,-1,-1,-1,-1],"loss_changes":[8.697626E-1,9.291707E-1,4.6868378E-1,0E0,1.2357639E0,3.3645833E-1,2.5191122E-1,0E0,0E0,0E0,0E0,0E0,0E0],"parents":[2147483647,0,0,1,1,2,2,4,4,5,5,6,6],"right_children":[2,4,6,-1,8,10,12,-1,-1,-1,-1,-1,-1],"split_conditions":[1.4205709E0,-2.3223453E0,1.6655731E0,-3.331267E-2,-2.6758114E-2,-8.1552196E-1,6.49395E-1,1.589498E-2,-2.1230471E-3,3.073126E-3,-5.8887113E-2,-1.5591874E-2,1.3184847E-2],"split_indices":[0,7,0,0,7,6,1,0,0,0,0,0,0],"split_type":[0,0,0,0,0,0,0,0,0,0,0,0,0],"sum_hessian":[1.97E2,1.76E2,2.1E1,6E0,1.7E2,4E0,1.7E1,5.6E1,1.14E2,1E0,3E0,1.4E1,3E0],"tree_param":{"num_deleted":"0","num_feature":"9","num_nodes":"13","size_leaf_vector":"1"}},{"base_weights":[4.315629E-4,-1.9394688E-1,2.2147413E-2,-2.2508597E-1,5.753668E-2,2.27154E-1,-1.1061052E-2,-3.4637857E-2,-9.341407E-3,1.9959763E-2,-1.1329261E-2,-1.0348063E-2,5.403153E-2,-2.5168216E-2,2.8526452E-3],"categories":[],"categories_nodes":[],"categories_segments":[],"categories_sizes":[],"default_left":[0,0,0,0,0,0,0,0,0,0,0,0,0,0,0],"id":41,"left_children":[1,3,5,7,9,11,13,-1,-1,-1,-1,-1,-1,-1,-1],"loss_changes":[8.4007186E-1,1.6957015E-1,1.2211363E0,2.551183E-1,9.541745E-2,2.644461E0,1.4836458E0,0E0,0E0,0E0,0E0,0E0,0E0,0E0,0E0],"parents":[2147483647,0,0,1,1,2,2,3,3,4,4,5,5,6,6],"right_children":[2,4,6,8,10,12,14,-1,-1,-1,-1,-1,-1,-1,-1],"split_conditions":[-1.0229032E0,9.929014E-1,-6.320112E-1,1.1881618E0,5.7298905E-1,-6.0510254E-1,-3.3550647E-1,-3.4637857E-2,-9.341407E-3,1.9959763E-2,-1.1329261E-2,-1.0348063E-2,5.403153E-2,-2.5168216E-2,2.8526452E-3],"split_indices":[1,5,2,0,0,6,2,0,0,0,0,0,0,0,0],"split_type":[0,0,0,0,0,0,0,0,0,0,0,0,0,0,0],"sum_hessian":[1.97E2,1.9E1,1.78E2,1.7E1,2E0,2.4E1,1.54E2,8E0,9E0,1E0,1E0,1.2E1,1.2E1,2.1E1,1.33E2],"tree_param":{"num_deleted":"0","num_feature":"9","num_nodes":"15","size_leaf_vector":"1"}},{"base_weights":[3.1777425E-4,-1.5969042E-1,2.4363412E-2,-3.673996E-1,4.458886E-2,3.0052575E-1,-2.431621E-2,1.27684865E-2,-5.2869346E-2,2.7120773E-2,-3.0277092E-2,-1.4155306E-2,4.1252322E-2,2.6838744E-2,-4.519909E-3],"categories":[],"categories_nodes":[],"categories_segments":[],"categories_sizes":[],"default_left":[0,0,0,0,0,0,0,0,0,0,0,0,0,0,0],"id":42,"left_children":[1,3,5,7,9,11,13,-1,-1,-1,-1,-1,-1,-1,-1],"loss_changes":[7.6569545E-1,1.1195797E0,2.3330295E0,1.1056089E0,1.1841697E0,1.3456981E0,9.167801E-1,0E0,0E0,0E0,0E0,0E0,0E0,0E0,0E0],"parents":[2147483647,0,0,1,1,2,2,3,3,4,4,5,5,6,6],"right_children":[2,4,6,8,10,12,14,-1,-1,-1,-1,-1,-1,-1,-1],"split_conditions":[-4.74293E-1,-1.9524295E-2,-4.2596063E-1,-1.4055018E0,-4.986675E-1,-8.5567343E-1,-1.3353858E0,1.27684865E-2,-5.2869346E-2,2.7120773E-2,-3.0277092E-2,-1.4155306E-2,4.1252322E-2,2.6838744E-2,-4.519909E-3],"split_indices":[8,1,8,2,8,1,0,0,0,0,0,0,0,0,0],"split_type":[0,0,0,0,0,0,0,0,0,0,0,0,0,0,0],"sum_hessian":[1.97E2,2.5E1,1.72E2,1.2E1,1.3E1,2.5E1,1.47E2,3E0,9E0,8E0,5E0,5E0,2E1,9E0,1.38E2],"tree_param":{"num_deleted":"0","num_feature":"9","num_nodes":"15","size_leaf_vector":"1"}},{"base_weights":[3.1710553E-4,8.697815E-3,-4.0832177E-1,-2.0282459E-2,1.9784969E-1,-6.0339868E-2,-1.4216323E-2,4.6395857E-4,-3.2162096E-2,3.6311883E-3,4.9894203E-2],"categories":[],"categories_nodes":[],"categories_segments":[],"categories_sizes":[],"default_left":[0,0,0,0,0,0,0,0,0,0,0],"id":43,"left_children":[1,3,5,7,9,-1,-1,-1,-1,-1,-1],"loss_changes":[6.816389E-1,1.072939E0,1.2190443E-1,1.2781874E0,1.246465E0,0E0,0E0,0E0,0E0,0E0,0E0],"parents":[2147483647,0,0,1,1,2,2,3,3,4,4],"right_children":[2,4,6,8,10,-1,-1,-1,-1,-1,-1],"split_conditions":[3.7530503E0,9.4075304E-1,-6.368714E-1,7.731634E-1,8.140547E-1,-6.0339868E-2,-1.4216323E-2,4.6395857E-4,-3.2162096E-2,3.6311883E-3,4.9894203E-2],"split_indices":[5,2,0,2,6,0,0,0,0,0,0],"split_type":[0,0,0,0,0,0,0,0,0,0,0],"sum_hessian":[1.97E2,1.94E2,3E0,1.69E2,2.5E1,1E0,2E0,1.57E2,1.2E1,1.7E1,8E0],"tree_param":{"num_deleted":"0","num_feature":"9","num_nodes":"11","size_leaf_vector":"1"}},{"base_weights":[1.9096722E-5,2.4215056E-2,-1.4181994E-1,-2.2634333E-2,1.8216132E-1,-1.1767596E-1,-6.283069E-2,-4.07483E-3,5.671997E-2,6.486618E-2,4.084955E-3,6.32438E-2,-1.1200501E-2],"categories":[],"categories_nodes":[],"categories_segments":[],"categories_sizes":[],"default_left":[0,0,0,0,0,0,0,0,0,0,0,0,0],"id":44,"left_children":[1,3,5,7,9,-1,11,-1,-1,-1,-1,-1,-1],"loss_changes":[6.8295664E-1,1.2620697E0,2.2967877E0,1.4334314E0,2.5444603E0,0E0,1.0281383E0,0E0,0E0,0E0,0E0,0E0,0E0],"parents":[2147483647,0,0,1,1,2,2,3,3,4,4,6,6],"right_children":[2,4,6,8,10,-1,12,-1,-1,-1,-1,-1,-1],"split_conditions":[1.2531357E0,8.3641523E-1,1.2656374E0,3.629013E0,9.35184E-1,-1.1767596E-1,1.2730483E0,-4.07483E-3,5.671997E-2,6.486618E-2,4.084955E-3,6.32438E-2,-1.1200501E-2],"split_indices":[6,6,6,8,6,0,6,0,0,0,0,0,0],"split_type":[0,0,0,0,0,0,0,0,0,0,0,0,0],"sum_hessian":[1.97E2,1.69E2,2.8E1,1.31E2,3.8E1,1E0,2.7E1,1.28E2,3E0,8E0,3E1,1E0,2.6E1],"tree_param":{"num_deleted":"0","num_feature":"9","num_nodes":"13","size_leaf_vector":"1"}},{"base_weights":[2.998073E-4,-1.1679521E-1,2.793528E-2,1.2899114E-1,-3.444525E-1,9.109406E-1,5.4039094E-3,-3.8175933E-2,2.4861682E-2,-4.5009147E-2,6.248269E-3,1.5134454E-2,1.1136911E-1,3.274976E-3,-2.2333225E-2],"categories":[],"categories_nodes":[],"categories_segments":[],"categories_sizes":[],"default_left":[0,0,0,0,0,0,0,0,0,0,0,0,0,0,0],"id":45,"left_children":[1,3,5,7,9,11,13,-1,-1,-1,-1,-1,-1,-1,-1],"loss_changes":[6.43986E-1,2.1707234E0,3.1982238E0,1.2557902E0,8.8788724E-1,4.474826E-1,9.956017E-1,0E0,0E0,0E0,0E0,0E0,0E0,0E0,0E0],"parents":[2147483647,0,0,1,1,2,2,3,3,4,4,5,5,6,6],"right_children":[2,4,6,8,10,12,14,-1,-1,-1,-1,-1,-1,-1,-1],"split_conditions":[-9.585419E-1,-1.3099629E0,-9.485227E-1,-8.5404295E-1,6.5341586E-1,-5.344852E-1,1.2278718E0,-3.8175933E-2,2.4861682E-2,-4.5009147E-2,6.248269E-3,1.5134454E-2,1.1136911E-1,3.274976E-3,-2.2333225E-2],"split_indices":[5,5,5,3,7,0,6,0,0,0,0,0,0,0,0],"split_type":[0,0,0,0,0,0,0,0,0,0,0,0,0,0,0],"sum_hessian":[1.97E2,3.7E1,1.6E2,1.8E1,1.9E1,3E0,1.57E2,3E0,1.5E1,1.5E1,4E0,1E0,2E0,1.41E2,1.6E1],"tree_param":{"num_deleted":"0","num_feature":"9","num_nodes":"15","size_leaf_vector":"1"}},{"base_weights":[5.495047E-4,7.398874E-3,-4.471258E-1,-1.8530028E-2,1.776467E-1,-5.7282876E-2,-9.785994E-3,4.0862738E-4,-2.9371941E-2,3.3059694E-2,-1.0013334E-2],"categories":[],"categories_nodes":[],"categories_segments":[],"categories_sizes":[],"default_left":[0,0,0,0,0,0,0,0,0,0,0],"id":46,"left_children":[1,3,5,7,9,-1,-1,-1,-1,-1,-1],"loss_changes":[6.1043435E-1,8.685022E-1,7.565427E-2,1.0654641E0,1.1377532E0,0E0,0E0,0E0,0E0,0E0,0E0],"parents":[2147483647,0,0,1,1,2,2,3,3,4,4],"right_children":[2,4,6,8,10,-1,-1,-1,-1,-1,-1],"split_conditions":[4.586367E0,9.4075304E-1,-6.368714E-1,7.731634E-1,1.6368946E0,-5.7282876E-2,-9.785994E-3,4.0862738E-4,-2.9371941E-2,3.3059694E-2,-1.0013334E-2],"split_indices":[5,2,0,2,2,0,0,0,0,0,0],"split_type":[0,0,0,0,0,0,0,0,0,0,0],"sum_hessian":[1.97E2,1.95E2,2E0,1.7E2,2.5E1,1E0,1E0,1.58E2,1.2E1,1.6E1,9E0],"tree_param":{"num_deleted":"0","num_feature":"9","num_nodes":"11","size_leaf_vector":"1"}},{"base_weights":[1.259323E-4,-1.6498402E-1,1.8573267E-2,-1.943016E-1,6.591625E-2,2.4519296E-1,-8.286034E-3,-3.068667E-2,-7.3562874E-3,1.9184131E-2,-9.296694E-3,3.8489383E-2,-2.2294825E-2,2.0427339E-2,-4.3398123E-3],"categories":[],"categories_nodes":[],"categories_segments":[],"categories_sizes":[],"default_left":[0,0,0,0,0,0,0,0,0,0,0,0,0,0,0],"id":47,"left_children":[1,3,5,7,9,11,13,-1,-1,-1,-1,-1,-1,-1,-1],"loss_changes":[6.061403E-1,1.4819652E-1,1.0915773E0,2.2206336E-1,7.785702E-2,1.3284063E0,1.2104734E0,0E0,0E0,0E0,0E0,0E0,0E0,0E0,0E0],"parents":[2147483647,0,0,1,1,2,2,3,3,4,4,5,5,6,6],"right_children":[2,4,6,8,10,12,14,-1,-1,-1,-1,-1,-1,-1,-1],"split_conditions":[-1.0229032E0,9.929014E-1,-9.752395E-1,1.1881618E0,5.7298905E-1,-1.8092042E-1,-6.320112E-1,-3.068667E-2,-7.3562874E-3,1.9184131E-2,-9.296694E-3,3.8489383E-2,-2.2294825E-2,2.0427339E-2,-4.3398123E-3],"split_indices":[1,5,6,0,0,8,2,0,0,0,0,0,0,0,0],"split_type":[0,0,0,0,0,0,0,0,0,0,0,0,0,0,0],"sum_hessian":[1.97E2,1.9E1,1.78E2,1.7E1,2E0,1.8E1,1.6E2,8E0,9E0,1E0,1E0,1.4E1,4E0,2.2E1,1.38E2],"tree_param":{"num_deleted":"0","num_feature":"9","num_nodes":"15","size_leaf_vector":"1"}},{"base_weights":[1.3413656E-4,1.9030038E-2,-1.5189809E-1,6.490385E-2,-6.7105316E-2,-3.966374E-1,-7.5476155E-2,-2.6656655E-4,2.0924594E-2,-1.0750644E-2,5.4558765E-2,3.216189E-3,-5.1187772E-2,-1.2205235E-2,1.1805363E-2],"categories":[],"categories_nodes":[],"categories_segments":[],"categories_sizes":[],"default_left":[0,0,0,0,0,0,0,0,0,0,0,0,0,0,0],"id":48,"left_children":[1,3,5,7,9,11,13,-1,-1,-1,-1,-1,-1,-1,-1],"loss_changes":[5.717022E-1,7.037455E-1,3.815393E-1,1.1319203E0,1.5933704E0,2.635377E-1,1.766586E-1,0E0,0E0,0E0,0E0,0E0,0E0,0E0,0E0],"parents":[2147483647,0,0,1,1,2,2,3,3,4,4,5,5,6,6],"right_children":[2,4,6,8,10,12,14,-1,-1,-1,-1,-1,-1,-1,-1],"split_conditions":[1.4205709E0,4.833724E-1,1.6655731E0,8.3641523E-1,1.652774E0,-8.1552196E-1,3.9835063E-1,-2.6656655E-4,2.0924594E-2,-1.0750644E-2,5.4558765E-2,3.216189E-3,-5.1187772E-2,-1.2205235E-2,1.1805363E-2],"split_indices":[0,7,0,6,1,6,7,0,0,0,0,0,0,0,0],"split_type":[0,0,0,0,0,0,0,0,0,0,0,0,0,0,0],"sum_hessian":[1.97E2,1.76E2,2.1E1,1.15E2,6.1E1,4E0,1.7E1,7.9E1,3.6E1,5.8E1,3E0,1E0,3E0,1.4E1,3E0],"tree_param":{"num_deleted":"0","num_feature":"9","num_nodes":"15","size_leaf_vector":"1"}},{"base_weights":[2.0198952E-4,-2.793637E-2,1.0393436E-2,9.628984E-2,-3.0339165E-2,-2.2708976E-3,4.1262254E-2,-2.060931E-2,2.1650612E-3],"categories":[],"categories_nodes":[],"categories_segments":[],"categories_sizes":[],"default_left":[0,0,0,0,0,0,0,0,0],"id":49,"left_children":[1,-1,3,5,7,-1,-1,-1,-1],"loss_changes":[5.6704086E-1,0E0,6.746879E-1,2.3432498E0,1.2014624E0,0E0,0E0,0E0,0E0],"parents":[2147483647,0,0,2,2,3,3,4,4],"right_children":[2,-1,4,6,8,-1,-1,-1,-1],"split_conditions":[-2.3223453E0,-2.793637E-2,-1.1177986E-1,8.3641523E-1,-8.713645E-1,-2.2708976E-3,4.1262254E-2,-2.060931E-2,2.1650612E-3],"split_indices":[7,0,7,6,0,0,0,0,0],"split_type":[0,0,0,0,0,0,0,0,0],"sum_hessian":[1.97E2,6E0,1.91E2,6.1E1,1.3E2,4.5E1,1.6E1,2.9E1,1.01E2],"tree_param":{"num_deleted":"0","num_feature":"9","num_nodes":"9","size_leaf_vector":"1"}},{"base_weights":[1.4448626E-4,-1.3837716E-1,2.0961933E-2,-3.2277083E-1,4.2729627E-2,2.4371557E-1,-1.8312098E-2,1.017167E-2,-4.602888E-2,2.3225551E-2,-2.4868082E-2,1.3251855E-2,6.8423934E-2,2.217688E-3,-1.5472151E-2],"categories":[],"categories_nodes":[],"categories_segments":[],"categories_sizes":[],"default_left":[0,0,0,0,0,0,0,0,0,0,0,0,0,0,0],"id":50,"left_children":[1,3,5,7,9,11,13,-1,-1,-1,-1,-1,-1,-1,-1],"loss_changes":[5.738667E-1,8.8206035E-1,1.517942E0,8.056897E-1,8.30975E-1,1.1829337E0,8.2084674E-1,0E0,0E0,0E0,0E0,0E0,0E0,0E0,0E0],"parents":[2147483647,0,0,1,1,2,2,3,3,4,4,5,5,6,6],"right_children":[2,4,6,8,10,12,14,-1,-1,-1,-1,-1,-1,-1,-1],"split_conditions":[-4.74293E-1,-1.9524295E-2,-4.2596063E-1,-1.4055018E0,-4.986675E-1,7.24102E-1,7.648902E-1,1.017167E-2,-4.602888E-2,2.3225551E-2,-2.4868082E-2,1.3251855E-2,6.8423934E-2,2.217688E-3,-1.5472151E-2],"split_indices":[8,1,8,2,8,5,5,0,0,0,0,0,0,0,0],"split_type":[0,0,0,0,0,0,0,0,0,0,0,0,0,0,0],"sum_hessian":[1.97E2,2.5E1,1.72E2,1.2E1,1.3E1,2.5E1,1.47E2,3E0,9E0,8E0,5E0,2.1E1,4E0,1.14E2,3.3E1],"tree_param":{"num_deleted":"0","num_feature":"9","num_nodes":"15","size_leaf_vector":"1"}},{"base_weights":[2.8618606E-4,-9.35784E-2,2.850504E-2,-1.377982E-1,5.8617156E-2,3.7352487E-1,-8.52306E-4,9.899109E-4,-3.1552996E-2,6.1525565E-2,2.9251496E-3,2.5925262E-2,-3.1326693E-3],"categories":[],"categories_nodes":[],"categories_segments":[],"categories_sizes":[],"default_left":[0,0,0,0,0,0,0,0,0,0,0,0,0],"id":51,"left_children":[1,3,5,7,-1,9,11,-1,-1,-1,-1,-1,-1],"loss_changes":[5.271201E-1,1.4634604E0,1.5500349E0,1.1581452E0,0E0,9.806603E-1,1.13369E0,0E0,0E0,0E0,0E0,0E0,0E0],"parents":[2147483647,0,0,1,1,2,2,3,3,5,5,6,6],"right_children":[2,4,6,8,-1,10,12,-1,-1,-1,-1,-1,-1],"split_conditions":[-6.884436E-1,-1.9369985E-1,-6.8357724E-1,1.4328538E-1,5.8617156E-2,5.683941E-1,-9.752395E-1,9.899109E-4,-3.1552996E-2,6.1525565E-2,2.9251496E-3,2.5925262E-2,-3.1326693E-3],"split_indices":[1,2,2,7,0,7,6,0,0,0,0,0,0],"split_type":[0,0,0,0,0,0,0,0,0,0,0,0,0],"sum_hessian":[1.97E2,4.5E1,1.52E2,4.3E1,2E0,1.1E1,1.41E2,2.4E1,1.9E1,6E0,5E0,1.4E1,1.27E2],"tree_param":{"num_deleted":"0","num_feature":"9","num_nodes":"13","size_leaf_vector":"1"}},{"base_weights":[8.398502E-4,-1.2601086E-1,2.1605816E-2,-1.7485163E-1,1.3362698E-1,1.6614118E-1,-2.3795374E-2,-1.5314049E-3,-2.536633E-2,3.1172192E-2,1.1172772E-3,3.521471E-2,-6.776813E-3,-4.5165834E-3,3.612193E-2],"categories":[],"categories_nodes":[],"categories_segments":[],"categories_sizes":[],"default_left":[0,0,0,0,0,0,0,0,0,0,0,0,0,0,0],"id":52,"left_children":[1,3,5,7,9,11,13,-1,-1,-1,-1,-1,-1,-1,-1],"loss_changes":[5.242897E-1,3.784304E-1,1.1260687E0,2.978776E-1,1.0555957E-1,1.8077135E0,1.094175E0,0E0,0E0,0E0,0E0,0E0,0E0,0E0,0E0],"parents":[2147483647,0,0,1,1,2,2,3,3,4,4,5,5,6,6],"right_children":[2,4,6,8,10,12,14,-1,-1,-1,-1,-1,-1,-1,-1],"split_conditions":[-9.619974E-1,6.5713984E-1,-1.1177986E-1,-4.2574704E-1,-1.1099374E0,3.61639E-1,8.9276713E-1,-1.5314049E-3,-2.536633E-2,3.1172192E-2,1.1172772E-3,3.521471E-2,-6.776813E-3,-4.5165834E-3,3.612193E-2],"split_indices":[7,2,7,2,0,0,5,0,0,0,0,0,0,0,0],"split_type":[0,0,0,0,0,0,0,0,0,0,0,0,0,0,0],"sum_hessian":[1.97E2,2.7E1,1.7E2,2.3E1,4E0,4E1,1.3E2,8E0,1.5E1,1E0,3E0,2.2E1,1.8E1,1.24E2,6E0],"tree_param":{"num_deleted":"0","num_feature":"9","num_nodes":"15","size_leaf_vector":"1"}},{"base_weights":[1.0863573E-3,7.445681E-3,-4.147516E-1,-1.5061454E-2,1.55187E-1,-5.4905366E-2,-7.30737E-3,4.431994E-4,-2.5232274E-2,2.6914377E-2,-1.9257335E-2],"categories":[],"categories_nodes":[],"categories_segments":[],"categories_sizes":[],"default_left":[0,0,0,0,0,0,0,0,0,0,0],"id":53,"left_children":[1,3,5,7,9,-1,-1,-1,-1,-1,-1],"loss_changes":[5.266888E-1,6.5408313E-1,9.754282E-2,7.9200023E-1,1.0822008E0,0E0,0E0,0E0,0E0,0E0,0E0],"parents":[2147483647,0,0,1,1,2,2,3,3,4,4],"right_children":[2,4,6,8,10,-1,-1,-1,-1,-1,-1],"split_conditions":[4.586367E0,9.4075304E-1,-6.368714E-1,7.731634E-1,2.227394E0,-5.4905366E-2,-7.30737E-3,4.431994E-4,-2.5232274E-2,2.6914377E-2,-1.9257335E-2],"split_indices":[5,2,0,2,3,0,0,0,0,0,0],"split_type":[0,0,0,0,0,0,0,0,0,0,0],"sum_hessian":[1.97E2,1.95E2,2E0,1.7E2,2.5E1,1E0,1E0,1.58E2,1.2E1,1.9E1,6E0],"tree_param":{"num_deleted":"0","num_feature":"9","num_nodes":"11","size_leaf_vector":"1"}},{"base_weights":[5.769798E-4,-7.3015355E-2,3.4663305E-2,2.9128132E-2,-2.1028548E-1,3.4611844E-3,3.0632025E-1,-9.521707E-3,3.3169106E-2,5.4500975E-2,-2.602972E-2,2.1089349E-2,-2.7301577E-3,7.2043476E-4,7.039408E-2],"categories":[],"categories_nodes":[],"categories_segments":[],"categories_sizes":[],"default_left":[0,0,0,0,0,0,0,0,0,0,0,0,0,0,0],"id":54,"left_children":[1,3,5,7,9,11,13,-1,-1,-1,-1,-1,-1,-1,-1],"loss_changes":[4.9921238E-1,8.89464E-1,1.1517129E0,1.4236059E0,1.1617522E0,7.906441E-1,1.660013E0,0E0,0E0,0E0,0E0,0E0,0E0,0E0,0E0],"parents":[2147483647,0,0,1,1,2,2,3,3,4,4,5,5,6,6],"right_children":[2,4,6,8,10,12,14,-1,-1,-1,-1,-1,-1,-1,-1],"split_conditions":[-2.3775554E-1,-3.5398394E-1,1.0785246E0,-6.884436E-1,-1.3860519E0,-6.320112E-1,-3.6472374E-1,-9.521707E-3,3.3169106E-2,5.4500975E-2,-2.602972E-2,2.1089349E-2,-2.7301577E-3,7.2043476E-4,7.039408E-2],"split_indices":[3,1,7,1,0,2,8,0,0,0,0,0,0,0,0],"split_type":[0,0,0,0,0,0,0,0,0,0,0,0,0,0,0],"sum_hessian":[1.97E2,6.2E1,1.35E2,3.6E1,2.6E1,1.22E2,1.3E1,2.6E1,1E1,1E0,2.5E1,1.5E1,1.07E2,8E0,5E0],"tree_param":{"num_deleted":"0","num_feature":"9","num_nodes":"15","size_leaf_vector":"1"}},{"base_weights":[1.234391E-3,-9.809332E-2,2.4670534E-2,9.676753E-2,-2.7830648E-1,8.145976E-1,4.516237E-3,-4.7508363E-2,1.9199023E-2,-3.755112E-2,8.840992E-3,1.5389479E-2,9.835336E-2,2.8320877E-3,-1.945882E-2],"categories":[],"categories_nodes":[],"categories_segments":[],"categories_sizes":[],"default_left":[0,0,0,0,0,0,0,0,0,0,0,0,0,0,0],"id":55,"left_children":[1,3,5,7,9,11,13,-1,-1,-1,-1,-1,-1,-1,-1],"loss_changes":[4.6333602E-1,1.3613576E0,2.5595095E0,1.1258225E0,7.461302E-1,2.9510498E-1,7.5436914E-1,0E0,0E0,0E0,0E0,0E0,0E0,0E0,0E0],"parents":[2147483647,0,0,1,1,2,2,3,3,4,4,5,5,6,6],"right_children":[2,4,6,8,10,12,14,-1,-1,-1,-1,-1,-1,-1,-1],"split_conditions":[-9.585419E-1,-1.3099629E0,-9.485227E-1,-7.2450615E-2,6.5341586E-1,-5.344852E-1,1.2278718E0,-4.7508363E-2,1.9199023E-2,-3.755112E-2,8.840992E-3,1.5389479E-2,9.835336E-2,2.8320877E-3,-1.945882E-2],"split_indices":[5,5,5,6,7,0,6,0,0,0,0,0,0,0,0],"split_type":[0,0,0,0,0,0,0,0,0,0,0,0,0,0,0],"sum_hessian":[1.97E2,3.7E1,1.6E2,1.8E1,1.9E1,3E0,1.57E2,2E0,1.6E1,1.5E1,4E0,1E0,2E0,1.41E2,1.6E1],"tree_param":{"num_deleted":"0","num_feature":"9","num_nodes":"15","size_leaf_vector":"1"}},{"base_weights":[1.3134255E-3,7.2051683E-3,-3.8405156E-1,-1.30045945E-2,1.398461E-1,-5.1000215E-2,-6.607521E-3,-1.6786022E-2,1.4661507E-3,2.3941569E-2,-1.6461646E-2],"categories":[],"categories_nodes":[],"categories_segments":[],"categories_sizes":[],"default_left":[0,0,0,0,0,0,0,0,0,0,0],"id":56,"left_children":[1,3,5,7,9,-1,-1,-1,-1,-1,-1],"loss_changes":[4.5232046E-1,5.272244E-1,8.6449414E-2,7.350681E-1,8.2760715E-1,0E0,0E0,0E0,0E0,0E0,0E0],"parents":[2147483647,0,0,1,1,2,2,3,3,4,4],"right_children":[2,4,6,8,10,-1,-1,-1,-1,-1,-1],"split_conditions":[4.586367E0,9.4075304E-1,-6.368714E-1,-9.0044993E-1,2.227394E0,-5.1000215E-2,-6.607521E-3,-1.6786022E-2,1.4661507E-3,2.3941569E-2,-1.6461646E-2],"split_indices":[5,2,0,0,3,0,0,0,0,0,0],"split_type":[0,0,0,0,0,0,0,0,0,0,0],"sum_hessian":[1.97E2,1.95E2,2E0,1.7E2,2.5E1,1E0,1E0,2.5E1,1.45E2,1.9E1,6E0],"tree_param":{"num_deleted":"0","num_feature":"9","num_nodes":"11","size_leaf_vector":"1"}},{"base_weights":[8.515886E-4,1.7785622E-2,-1.3542911E-1,2.3392383E-2,-4.845021E-2,-3.5589623E-1,-6.666442E-2,6.459394E-3,-5.340717E-3,3.4529567E-3,-4.6213508E-2,-1.2393868E-2,6.8540545E-3],"categories":[],"categories_nodes":[],"categories_segments":[],"categories_sizes":[],"default_left":[0,0,0,0,0,0,0,0,0,0,0,0,0],"id":57,"left_children":[1,3,5,7,-1,9,11,-1,-1,-1,-1,-1,-1],"loss_changes":[4.5934957E-1,5.098023E-1,3.098022E-1,5.603598E-1,0E0,2.2334927E-1,1.4788258E-1,0E0,0E0,0E0,0E0,0E0,0E0],"parents":[2147483647,0,0,1,1,2,2,3,3,5,5,6,6],"right_children":[2,4,6,8,-1,10,12,-1,-1,-1,-1,-1,-1],"split_conditions":[1.4205709E0,4.586367E0,1.6655731E0,4.833724E-1,-4.845021E-2,-8.1552196E-1,3.1493536E-1,6.459394E-3,-5.340717E-3,3.4529567E-3,-4.6213508E-2,-1.2393868E-2,6.8540545E-3],"split_indices":[0,5,0,7,0,6,1,0,0,0,0,0,0],"split_type":[0,0,0,0,0,0,0,0,0,0,0,0,0],"sum_hessian":[1.97E2,1.76E2,2.1E1,1.75E2,1E0,4E0,1.7E1,1.14E2,6.1E1,1E0,3E0,1.2E1,5E0],"tree_param":{"num_deleted":"0","num_feature":"9","num_nodes":"13","size_leaf_vector":"1"}},{"base_weights":[2.8342943E-4,-8.483028E-2,2.5871318E-2,-1.257045E-1,5.4293513E-2,-7.673297E-4,3.128081E-1,4.314195E-4,-2.8194264E-2,2.9616946E-2,-2.3256727E-3,6.768649E-2,-9.593562E-3],"categories":[],"categories_nodes":[],"categories_segments":[],"categories_sizes":[],"default_left":[0,0,0,0,0,0,0,0,0,0,0,0,0],"id":58,"left_children":[1,3,5,7,-1,9,11,-1,-1,-1,-1,-1,-1],"loss_changes":[4.334149E-1,1.248583E0,1.169712E0,8.9502704E-1,0E0,9.484759E-1,1.9994129E0,0E0,0E0,0E0,0E0,0E0,0E0],"parents":[2147483647,0,0,1,1,2,2,3,3,5,5,6,6],"right_children":[2,4,6,8,-1,10,12,-1,-1,-1,-1,-1,-1],"split_conditions":[-6.884436E-1,-1.9369985E-1,7.812085E-1,1.4328538E-1,5.4293513E-2,-6.8357724E-1,-3.9719823E-1,4.314195E-4,-2.8194264E-2,2.9616946E-2,-2.3256727E-3,6.768649E-2,-9.593562E-3],"split_indices":[1,2,8,7,0,2,0,0,0,0,0,0,0],"split_type":[0,0,0,0,0,0,0,0,0,0,0,0,0],"sum_hessian":[1.97E2,4.5E1,1.52E2,4.3E1,2E0,1.4E2,1.2E1,2.4E1,1.9E1,9E0,1.31E2,6E0,6E0],"tree_param":{"num_deleted":"0","num_feature":"9","num_nodes":"13","size_leaf_vector":"1"}},{"base_weights":[8.203539E-4,-6.317323E-3,2.7759814E-1,2.0175416E-3,-4.0272778E-1,5.2083284E-2,-5.8169287E-2,-1.2756516E-3,2.2346027E-2,-5.60228E-2,-1.6348504E-2,8.6929565E-3,-1.741835E-2],"categories":[],"categories_nodes":[],"categories_segments":[],"categories_sizes":[],"default_left":[0,0,0,0,0,0,0,0,0,0,0,0,0],"id":59,"left_children":[1,3,5,7,9,-1,11,-1,-1,-1,-1,-1,-1],"loss_changes":[3.9291266E-1,6.417938E-1,4.386479E-1,6.277276E-1,5.9134305E-2,0E0,6.5642275E-2,0E0,0E0,0E0,0E0,0E0,0E0],"parents":[2147483647,0,0,1,1,2,2,3,3,4,4,6,6],"right_children":[2,4,6,8,10,-1,12,-1,-1,-1,-1,-1,-1],"split_conditions":[2.1544635E0,1.9076163E0,3.8267617E0,1.1083426E0,2.126772E0,5.2083284E-2,-1.3860519E0,-1.2756516E-3,2.2346027E-2,-5.60228E-2,-1.6348504E-2,8.6929565E-3,-1.741835E-2],"split_indices":[1,2,1,2,2,0,0,0,0,0,0,0,0],"split_type":[0,0,0,0,0,0,0,0,0,0,0,0,0],"sum_hessian":[1.97E2,1.93E2,4E0,1.9E2,3E0,2E0,2E0,1.79E2,1.1E1,1E0,2E0,1E0,1E0],"tree_param":{"num_deleted":"0","num_feature":"9","num_nodes":"13","size_leaf_vector":"1"}},{"base_weights":[6.9814984E-4,-1.08194925E-1,1.8524513E-2,-1.4832102E-1,1.060493E-1,1.4788926E-1,-2.21051E-2,-1.9180465E-2,5.527768E-3,2.219069E-2,-4.515807E-3,8.405846E-4,4.1629255E-2,-1.775622E-2,2.9937217E-3],"categories":[],"categories_nodes":[],"categories_segments":[],"categories_sizes":[],"default_left":[0,0,0,0,0,0,0,0,0,0,0,0,0,0,0],"id":60,"left_children":[1,3,5,7,9,11,13,-1,-1,-1,-1,-1,-1,-1,-1],"loss_changes":[3.863554E-1,2.5643927E-1,9.020518E-1,2.230795E-1,9.761349E-2,1.5314509E0,1.0651512E0,0E0,0E0,0E0,0E0,0E0,0E0,0E0,0E0],"parents":[2147483647,0,0,1,1,2,2,3,3,4,4,5,5,6,6],"right_children":[2,4,6,8,10,12,14,-1,-1,-1,-1,-1,-1,-1,-1],"split_conditions":[-9.619974E-1,6.5713984E-1,-1.1177986E-1,6.9910485E-1,1.0052106E0,8.3641523E-1,-8.294621E-1,-1.9180465E-2,5.527768E-3,2.219069E-2,-4.515807E-3,8.405846E-4,4.1629255E-2,-1.775622E-2,2.9937217E-3],"split_indices":[7,2,7,8,2,6,0,0,0,0,0,0,0,0,0],"split_type":[0,0,0,0,0,0,0,0,0,0,0,0,0,0,0],"sum_hessian":[1.97E2,2.7E1,1.7E2,2.3E1,4E0,4E1,1.3E2,1.9E1,4E0,2E0,2E0,2.7E1,1.3E1,3.2E1,9.8E1],"tree_param":{"num_deleted":"0","num_feature":"9","num_nodes":"15","size_leaf_vector":"1"}},{"base_weights":[7.8856485E-4,1.637333E-2,-1.2463381E-1,2.1681095E-2,-4.5889657E-2,-3.1975374E-1,-6.350973E-2,5.825654E-3,-4.651015E-3,3.4183443E-3,-4.1678388E-2,5.33252E-3,-1.2637096E-2],"categories":[],"categories_nodes":[],"categories_segments":[],"categories_sizes":[],"default_left":[0,0,0,0,0,0,0,0,0,0,0,0,0],"id":61,"left_children":[1,3,5,7,-1,9,11,-1,-1,-1,-1,-1,-1],"loss_changes":[3.8906702E-1,4.5645323E-1,2.4207607E-1,4.4167554E-1,0E0,1.8596005E-1,1.3893774E-1,0E0,0E0,0E0,0E0,0E0,0E0],"parents":[2147483647,0,0,1,1,2,2,3,3,5,5,6,6],"right_children":[2,4,6,8,-1,10,12,-1,-1,-1,-1,-1,-1],"split_conditions":[1.4205709E0,4.586367E0,1.6655731E0,4.833724E-1,-4.5889657E-2,-8.1552196E-1,1.8391804E0,5.825654E-3,-4.651015E-3,3.4183443E-3,-4.1678388E-2,5.33252E-3,-1.2637096E-2],"split_indices":[0,5,0,7,0,6,0,0,0,0,0,0,0],"split_type":[0,0,0,0,0,0,0,0,0,0,0,0,0],"sum_hessian":[1.97E2,1.76E2,2.1E1,1.75E2,1E0,4E0,1.7E1,1.14E2,6.1E1,1E0,3E0,6E0,1.1E1],"tree_param":{"num_deleted":"0","num_feature":"9","num_nodes":"13","size_leaf_vector":"1"}},{"base_weights":[2.5372952E-4,-7.886752E-2,2.4717182E-2,-2.1925448E-1,6.480558E-2,4.66076E-1,-6.3199163E-3,4.969931E-3,-2.755302E-2,-6.6242884E-3,3.351829E-2,7.0468955E-2,-6.801668E-3,-6.9151013E-3,8.174895E-3],"categories":[],"categories_nodes":[],"categories_segments":[],"categories_sizes":[],"default_left":[0,0,0,0,0,0,0,0,0,0,0,0,0,0,0],"id":62,"left_children":[1,3,5,7,9,11,13,-1,-1,-1,-1,-1,-1,-1,-1],"loss_changes":[3.85194E-1,9.6219087E-1,2.0851169E0,3.769474E-1,8.725842E-1,1.3223479E0,7.9693836E-1,0E0,0E0,0E0,0E0,0E0,0E0,0E0,0E0],"parents":[2147483647,0,0,1,1,2,2,3,3,4,4,5,5,6,6],"right_children":[2,4,6,8,10,12,14,-1,-1,-1,-1,-1,-1,-1,-1],"split_conditions":[-5.368886E-1,3.7853184E-1,-3.668451E-1,-7.003461E-2,-3.463923E-1,3.61639E-1,4.2200676E-1,4.969931E-3,-2.755302E-2,-6.6242884E-3,3.351829E-2,7.0468955E-2,-6.801668E-3,-6.9151013E-3,8.174895E-3],"split_indices":[7,3,7,4,8,0,5,0,0,0,0,0,0,0,0],"split_type":[0,0,0,0,0,0,0,0,0,0,0,0,0,0,0],"sum_hessian":[1.97E2,4.6E1,1.51E2,2.3E1,2.3E1,9E0,1.42E2,4E0,1.9E1,1.6E1,7E0,6E0,3E0,8.3E1,5.9E1],"tree_param":{"num_deleted":"0","num_feature":"9","num_nodes":"15","size_leaf_vector":"1"}},{"base_weights":[5.7803903E-4,-1.6340852E-1,1.2036358E-2,-2.1178095E-1,2.0853028E-2,1.5253367E-1,-6.769565E-3,-3.3247646E-2,-7.8073232E-3,2.4101116E-2,-1.9649204E-2,-2.5916329E-2,7.741984E-4],"categories":[],"categories_nodes":[],"categories_segments":[],"categories_sizes":[],"default_left":[0,0,0,0,0,0,0,0,0,0,0,0,0],"id":63,"left_children":[1,3,5,7,-1,9,11,-1,-1,-1,-1,-1,-1],"loss_changes":[3.7401086E-1,2.7805328E-1,4.9247837E-1,1.6769749E-1,0E0,7.267369E-1,6.063394E-1,0E0,0E0,0E0,0E0,0E0,0E0],"parents":[2147483647,0,0,1,1,2,2,3,3,5,5,6,6],"right_children":[2,4,6,8,-1,10,12,-1,-1,-1,-1,-1,-1],"split_conditions":[-1.689115E0,9.929014E-1,-9.752395E-1,1.0103728E0,2.0853028E-2,-1.8092042E-1,-9.487726E-1,-3.3247646E-2,-7.8073232E-3,2.4101116E-2,-1.9649204E-2,-2.5916329E-2,7.741984E-4],"split_indices":[2,5,6,0,0,8,6,0,0,0,0,0,0],"split_type":[0,0,0,0,0,0,0,0,0,0,0,0,0],"sum_hessian":[1.97E2,1.2E1,1.85E2,1.1E1,1E0,2.1E1,1.64E2,5E0,6E0,1.7E1,4E0,8E0,1.56E2],"tree_param":{"num_deleted":"0","num_feature":"9","num_nodes":"13","size_leaf_vector":"1"}},{"base_weights":[3.1374165E-4,-1.10095136E-1,1.690517E-2,-2.6704186E-1,4.350504E-2,1.9837049E-1,-1.5088096E-2,3.8318858E-3,-3.6248196E-2,-9.473768E-3,4.1279625E-2,3.23316E-2,-7.356173E-3,2.06308E-3,-1.3545825E-2],"categories":[],"categories_nodes":[],"categories_segments":[],"categories_sizes":[],"default_left":[0,0,0,0,0,0,0,0,0,0,0,0,0,0,0],"id":64,"left_children":[1,3,5,7,9,11,13,-1,-1,-1,-1,-1,-1,-1,-1],"loss_changes":[3.6456567E-1,6.384008E-1,1.0073736E0,3.9275753E-1,7.538329E-1,9.071783E-1,6.391189E-1,0E0,0E0,0E0,0E0,0E0,0E0,0E0,0E0],"parents":[2147483647,0,0,1,1,2,2,3,3,4,4,5,5,6,6],"right_children":[2,4,6,8,10,12,14,-1,-1,-1,-1,-1,-1,-1,-1],"split_conditions":[-4.74293E-1,-1.9524295E-2,-4.2596063E-1,-1.4055018E0,1.3096471E0,1.0475116E0,7.648902E-1,3.8318858E-3,-3.6248196E-2,-9.473768E-3,4.1279625E-2,3.23316E-2,-7.356173E-3,2.06308E-3,-1.3545825E-2],"split_indices":[8,1,8,2,4,6,5,0,0,0,0,0,0,0,0],"split_type":[0,0,0,0,0,0,0,0,0,0,0,0,0,0,0],"sum_hessian":[1.97E2,2.5E1,1.72E2,1.2E1,1.3E1,2.5E1,1.47E2,3E0,9E0,1E1,3E0,1.7E1,8E0,1.14E2,3.3E1],"tree_param":{"num_deleted":"0","num_feature":"9","num_nodes":"15","size_leaf_vector":"1"}},{"base_weights":[3.474404E-4,-6.639035E-3,2.713532E-1,9.433984E-4,-3.6704046E-1,4.1792655E-1,-1.574701E-2,-1.0995139E-2,2.4800864E-3,-5.345874E-2,-1.3299571E-2,9.084666E-3,4.9667098E-2],"categories":[],"categories_nodes":[],"categories_segments":[],"categories_sizes":[],"default_left":[0,0,0,0,0,0,0,0,0,0,0,0,0],"id":65,"left_children":[1,3,5,7,9,11,-1,-1,-1,-1,-1,-1,-1],"loss_changes":[3.766898E-1,5.304939E-1,3.800813E-1,5.080496E-1,8.575612E-2,5.790192E-2,0E0,0E0,0E0,0E0,0E0,0E0,0E0],"parents":[2147483647,0,0,1,1,2,2,3,3,4,4,5,5],"right_children":[2,4,6,8,10,12,-1,-1,-1,-1,-1,-1,-1],"split_conditions":[2.1544635E0,1.9076163E0,4.662911E0,-9.8336047E-1,2.126772E0,-1.3860519E0,-1.574701E-2,-1.0995139E-2,2.4800864E-3,-5.345874E-2,-1.3299571E-2,9.084666E-3,4.9667098E-2],"split_indices":[1,2,1,5,2,0,0,0,0,0,0,0,0],"split_type":[0,0,0,0,0,0,0,0,0,0,0,0,0],"sum_hessian":[1.97E2,1.93E2,4E0,1.9E2,3E0,3E0,1E0,3.3E1,1.57E2,1E0,2E0,1E0,2E0],"tree_param":{"num_deleted":"0","num_feature":"9","num_nodes":"13","size_leaf_vector":"1"}},{"base_weights":[1.4975647E-4,-6.363106E-3,2.5281888E-1,8.0451084E-4,-3.4702605E-1,3.9082187E-1,-1.4959658E-2,-1.2171888E-3,1.9538345E-2,-5.0785806E-2,-1.24129355E-2,8.630431E-3,4.6355963E-2],"categories":[],"categories_nodes":[],"categories_segments":[],"categories_sizes":[],"default_left":[0,0,0,0,0,0,0,0,0,0,0,0,0],"id":66,"left_children":[1,3,5,7,9,11,-1,-1,-1,-1,-1,-1,-1],"loss_changes":[3.2743734E-1,4.7397703E-1,3.3613828E-1,4.8464054E-1,8.0355585E-2,4.8592508E-2,0E0,0E0,0E0,0E0,0E0,0E0,0E0],"parents":[2147483647,0,0,1,1,2,2,3,3,4,4,5,5],"right_children":[2,4,6,8,10,12,-1,-1,-1,-1,-1,-1,-1],"split_conditions":[2.1544635E0,1.9076163E0,4.662911E0,1.1083426E0,2.126772E0,-1.3860519E0,-1.4959658E-2,-1.2171888E-3,1.9538345E-2,-5.0785806E-2,-1.24129355E-2,8.630431E-3,4.6355963E-2],"split_indices":[1,2,1,2,2,0,0,0,0,0,0,0,0],"split_type":[0,0,0,0,0,0,0,0,0,0,0,0,0],"sum_hessian":[1.97E2,1.93E2,4E0,1.9E2,3E0,3E0,1E0,1.79E2,1.1E1,1E0,2E0,1E0,2E0],"tree_param":{"num_deleted":"0","num_feature":"9","num_nodes":"13","size_leaf_vector":"1"}},{"base_weights":[1.10264344E-4,-7.012237E-2,2.182621E-2,-1.9358051E-1,5.625753E-2,3.6360636E-1,-1.2754715E-2,-5.194852E-3,-3.0942691E-2,-6.6510364E-3,3.1010712E-2,5.8161713E-2,-1.4513644E-2,-3.2539421E-3,2.2042543E-2],"categories":[],"categories_nodes":[],"categories_segments":[],"categories_sizes":[],"default_left":[0,0,0,0,0,0,0,0,0,0,0,0,0,0,0],"id":67,"left_children":[1,3,5,7,9,11,13,-1,-1,-1,-1,-1,-1,-1,-1],"loss_changes":[3.0351377E-1,7.442138E-1,1.801137E0,3.7770718E-1,7.685753E-1,1.6371737E0,6.484351E-1,0E0,0E0,0E0,0E0,0E0,0E0,0E0,0E0],"parents":[2147483647,0,0,1,1,2,2,3,3,4,4,5,5,6,6],"right_children":[2,4,6,8,10,12,14,-1,-1,-1,-1,-1,-1,-1,-1],"split_conditions":[-5.368886E-1,3.7853184E-1,-2.8182337E-1,-5.2121377E-1,-3.463923E-1,3.61639E-1,8.6480063E-1,-5.194852E-3,-3.0942691E-2,-6.6510364E-3,3.1010712E-2,5.8161713E-2,-1.4513644E-2,-3.2539421E-3,2.2042543E-2],"split_indices":[7,3,7,1,8,0,5,0,0,0,0,0,0,0,0],"split_type":[0,0,0,0,0,0,0,0,0,0,0,0,0,0,0],"sum_hessian":[1.97E2,4.6E1,1.51E2,2.3E1,2.3E1,1.3E1,1.38E2,1.1E1,1.2E1,1.6E1,7E0,9E0,4E0,1.28E2,1E1],"tree_param":{"num_deleted":"0","num_feature":"9","num_nodes":"15","size_leaf_vector":"1"}},{"base_weights":[3.5508335E-4,-7.218461E-2,2.2162082E-2,-1.094626E-1,4.986207E-2,-2.2890442E-3,2.85658E-1,5.6366087E-4,-2.4786348E-2,-2.8302881E-3,2.1811403E-2,6.0905915E-2,-7.855143E-3],"categories":[],"categories_nodes":[],"categories_segments":[],"categories_sizes":[],"default_left":[0,0,0,0,0,0,0,0,0,0,0,0,0],"id":68,"left_children":[1,3,5,7,-1,9,11,-1,-1,-1,-1,-1,-1],"loss_changes":[3.1481063E-1,1.03339E0,9.863981E-1,7.0230967E-1,0E0,8.146009E-1,1.5790573E0,0E0,0E0,0E0,0E0,0E0,0E0],"parents":[2147483647,0,0,1,1,2,2,3,3,5,5,6,6],"right_children":[2,4,6,8,-1,10,12,-1,-1,-1,-1,-1,-1],"split_conditions":[-6.884436E-1,-1.9369985E-1,7.812085E-1,1.4328538E-1,4.986207E-2,1.0785246E0,-3.9719823E-1,5.6366087E-4,-2.4786348E-2,-2.8302881E-3,2.1811403E-2,6.0905915E-2,-7.855143E-3],"split_indices":[1,2,8,7,0,7,0,0,0,0,0,0,0],"split_type":[0,0,0,0,0,0,0,0,0,0,0,0,0],"sum_hessian":[1.97E2,4.5E1,1.52E2,4.3E1,2E0,1.4E2,1.2E1,2.4E1,1.9E1,1.26E2,1.4E1,6E0,6E0],"tree_param":{"num_deleted":"0","num_feature":"9","num_nodes":"13","size_leaf_vector":"1"}},{"base_weights":[8.128568E-4,1.0020718E-1,-1.3472608E-2,-1.459356E-1,2.2462352E-1,2.8724277E-2,-7.5092375E-2,-6.1741592E-3,-2.9374307E-2,3.3272356E-2,-2.098825E-2,2.4331555E-2,-6.156023E-3,-2.0923859E-2,2.2514248E-3],"categories":[],"categories_nodes":[],"categories_segments":[],"categories_sizes":[],"default_left":[0,0,0,0,0,0,0,0,0,0,0,0,0,0,0],"id":69,"left_children":[1,3,5,7,9,11,13,-1,-1,-1,-1,-1,-1,-1,-1],"loss_changes":[2.8248906E-1,7.983852E-1,4.5458522E-1,9.3864396E-2,8.683249E-1,2.0299025E0,9.3435335E-1,0E0,0E0,0E0,0E0,0E0,0E0,0E0,0E0],"parents":[2147483647,0,0,1,1,2,2,3,3,4,4,5,5,6,6],"right_children":[2,4,6,8,10,12,14,-1,-1,-1,-1,-1,-1,-1,-1],"split_conditions":[-9.752395E-1,-8.5567343E-1,3.1493536E-1,3.7853184E-1,-1.8092042E-1,-3.5554016E-1,6.49395E-1,-6.1741592E-3,-2.9374307E-2,3.3272356E-2,-2.098825E-2,2.4331555E-2,-6.156023E-3,-2.0923859E-2,2.2514248E-3],"split_indices":[6,1,1,3,8,0,1,0,0,0,0,0,0,0,0],"split_type":[0,0,0,0,0,0,0,0,0,0,0,0,0,0,0],"sum_hessian":[1.97E2,2.4E1,1.73E2,8E0,1.6E1,1.03E2,7E1,6E0,2E0,1.3E1,3E0,3E1,7.3E1,2.9E1,4.1E1],"tree_param":{"num_deleted":"0","num_feature":"9","num_nodes":"15","size_leaf_vector":"1"}},{"base_weights":[6.115601E-4,-5.3951424E-3,2.3354931E-1,1.3316037E-3,-3.2524848E-1,3.6203682E-1,-1.4020038E-2,-9.561934E-3,2.2186039E-3,-4.8054874E-2,-1.1329883E-2,8.390546E-3,4.267788E-2],"categories":[],"categories_nodes":[],"categories_segments":[],"categories_sizes":[],"default_left":[0,0,0,0,0,0,0,0,0,0,0,0,0],"id":70,"left_children":[1,3,5,7,9,11,-1,-1,-1,-1,-1,-1,-1],"loss_changes":[2.7829918E-1,4.1783813E-1,2.9086855E-1,3.882961E-1,7.721776E-2,3.6217988E-2,0E0,0E0,0E0,0E0,0E0,0E0,0E0],"parents":[2147483647,0,0,1,1,2,2,3,3,4,4,5,5],"right_children":[2,4,6,8,10,12,-1,-1,-1,-1,-1,-1,-1],"split_conditions":[2.1544635E0,1.9076163E0,4.662911E0,-9.8336047E-1,2.126772E0,-1.3860519E0,-1.4020038E-2,-9.561934E-3,2.2186039E-3,-4.8054874E-2,-1.1329883E-2,8.390546E-3,4.267788E-2],"split_indices":[1,2,1,5,2,0,0,0,0,0,0,0,0],"split_type":[0,0,0,0,0,0,0,0,0,0,0,0,0],"sum_hessian":[1.97E2,1.93E2,4E0,1.9E2,3E0,3E0,1E0,3.3E1,1.57E2,1E0,2E0,1E0,2E0],"tree_param":{"num_deleted":"0","num_feature":"9","num_nodes":"13","size_leaf_vector":"1"}},{"base_weights":[4.0056277E-4,2.9360164E-2,-4.0892526E-3,-9.4669454E-2,1.6190106E-2,-3.966591E-2,-2.1049562E-3,7.414731E-2,-2.2739566E-4],"categories":[],"categories_nodes":[],"categories_segments":[],"categories_sizes":[],"default_left":[0,0,0,0,0,0,0,0,0],"id":71,"left_children":[1,-1,3,5,7,-1,-1,-1,-1],"loss_changes":[2.6185152E-1,0E0,3.6156675E-1,7.9201853E-1,2.1577446E0,0E0,0E0,0E0,0E0],"parents":[2147483647,0,0,2,2,3,3,4,4],"right_children":[2,-1,4,6,8,-1,-1,-1,-1],"split_conditions":[-1.8291178E0,2.9360164E-2,-9.585419E-1,5.384273E-1,-9.485227E-1,-3.966591E-2,-2.1049562E-3,7.414731E-2,-2.2739566E-4],"split_indices":[5,0,5,6,5,0,0,0,0],"split_type":[0,0,0,0,0,0,0,0,0],"sum_hessian":[1.97E2,2E0,1.95E2,3.5E1,1.6E2,6E0,2.9E1,3E0,1.57E2],"tree_param":{"num_deleted":"0","num_feature":"9","num_nodes":"9","size_leaf_vector":"1"}},{"base_weights":[6.7119393E-4,-5.1409756E-3,2.2604914E-1,1.2159563E-3,-3.0739924E-1,3.3924013E-1,-1.1335743E-2,-7.813654E-4,2.08745E-2,-4.5640755E-2,-1.0559395E-2,7.982385E-3,3.991043E-2],"categories":[],"categories_nodes":[],"categories_segments":[],"categories_sizes":[],"default_left":[0,0,0,0,0,0,0,0,0,0,0,0,0],"id":72,"left_children":[1,3,5,7,9,11,-1,-1,-1,-1,-1,-1,-1],"loss_changes":[2.6052922E-1,3.7313223E-1,2.3054421E-1,3.5954717E-1,7.208878E-2,3.026089E-2,0E0,0E0,0E0,0E0,0E0,0E0,0E0],"parents":[2147483647,0,0,1,1,2,2,3,3,4,4,5,5],"right_children":[2,4,6,8,10,12,-1,-1,-1,-1,-1,-1,-1],"split_conditions":[2.1544635E0,1.9076163E0,4.662911E0,1.3403898E0,2.126772E0,-1.3860519E0,-1.1335743E-2,-7.813654E-4,2.08745E-2,-4.5640755E-2,-1.0559395E-2,7.982385E-3,3.991043E-2],"split_indices":[1,2,1,2,2,0,0,0,0,0,0,0,0],"split_type":[0,0,0,0,0,0,0,0,0,0,0,0,0],"sum_hessian":[1.97E2,1.93E2,4E0,1.9E2,3E0,3E0,1E0,1.83E2,7E0,1E0,2E0,1E0,2E0],"tree_param":{"num_deleted":"0","num_feature":"9","num_nodes":"13","size_leaf_vector":"1"}},{"base_weights":[6.063283E-4,-6.2822807E-3,1.8946442E-1,7.0530997E-4,-4.467356E-2,4.97786E-1,-1.6622326E-1,-9.061938E-3,2.3382648E-3,2.401185E-3,6.4770676E-2,-1.8064976E-4,-2.2042667E-2],"categories":[],"categories_nodes":[],"categories_segments":[],"categories_sizes":[],"default_left":[0,0,0,0,0,0,0,0,0,0,0,0,0],"id":73,"left_children":[1,3,5,7,-1,9,11,-1,-1,-1,-1,-1,-1],"loss_changes":[2.5878227E-1,5.91235E-1,8.504069E-1,3.956091E-1,0E0,2.6856166E-1,3.5249613E-2,0E0,0E0,0E0,0E0,0E0,0E0],"parents":[2147483647,0,0,1,1,2,2,3,3,5,5,6,6],"right_children":[2,4,6,8,-1,10,12,-1,-1,-1,-1,-1,-1],"split_conditions":[3.629013E0,3.5848768E0,-1.15259895E-2,-9.0044993E-1,-4.467356E-2,-1.3621765E0,-8.5567343E-1,-9.061938E-3,2.3382648E-3,2.401185E-3,6.4770676E-2,-1.8064976E-4,-2.2042667E-2],"split_indices":[8,8,0,0,0,0,1,0,0,0,0,0,0],"split_type":[0,0,0,0,0,0,0,0,0,0,0,0,0],"sum_hessian":[1.97E2,1.91E2,6E0,1.89E2,2E0,3E0,3E0,3.7E1,1.52E2,1E0,2E0,1E0,2E0],"tree_param":{"num_deleted":"0","num_feature":"9","num_nodes":"13","size_leaf_vector":"1"}},{"base_weights":[5.1316834E-4,1.336845E-2,-1.0293674E-1,-9.492043E-4,1.6806239E-1,-2.5888944E-1,-5.3897843E-2,1.9966919E-2,-1.9667258E-3,-1.677522E-2,2.659954E-2,3.0682923E-3,-3.3895325E-2,5.449855E-3,-9.978096E-3],"categories":[],"categories_nodes":[],"categories_segments":[],"categories_sizes":[],"default_left":[0,0,0,0,0,0,0,0,0,0,0,0,0,0,0],"id":74,"left_children":[1,3,5,7,9,11,13,-1,-1,-1,-1,-1,-1,-1,-1],"loss_changes":[2.646919E-1,3.9218876E-1,1.5429686E-1,6.160222E-1,5.3793126E-1,1.2632143E-1,9.4962075E-2,0E0,0E0,0E0,0E0,0E0,0E0,0E0,0E0],"parents":[2147483647,0,0,1,1,2,2,3,3,4,4,5,5,6,6],"right_children":[2,4,6,8,10,12,14,-1,-1,-1,-1,-1,-1,-1,-1],"split_conditions":[1.4205709E0,1.0676746E0,1.6655731E0,-1.3348573E0,-1.0080829E0,-8.1552196E-1,-3.5953927E-1,1.9966919E-2,-1.9667258E-3,-1.677522E-2,2.659954E-2,3.0682923E-3,-3.3895325E-2,5.449855E-3,-9.978096E-3],"split_indices":[0,0,0,5,5,6,5,0,0,0,0,0,0,0,0],"split_type":[0,0,0,0,0,0,0,0,0,0,0,0,0,0,0],"sum_hessian":[1.97E2,1.76E2,2.1E1,1.62E2,1.4E1,4E0,1.7E1,1.3E1,1.49E2,3E0,1.1E1,1E0,3E0,5E0,1.2E1],"tree_param":{"num_deleted":"0","num_feature":"9","num_nodes":"15","size_leaf_vector":"1"}},{"base_weights":[4.238128E-4,1.4854906E-1,-8.245344E-3,-1.7058368E-1,3.552797E-1,-3.869236E-2,-1.3137186E-5,-2.2066291E-2,-6.364322E-3,-1.9427857E-3,5.0904837E-2,-1.389286E-3,1.7051011E-2],"categories":[],"categories_nodes":[],"categories_segments":[],"categories_sizes":[],"default_left":[0,0,0,0,0,0,0,0,0,0,0,0,0],"id":75,"left_children":[1,3,5,7,9,-1,11,-1,-1,-1,-1,-1,-1],"loss_changes":[2.554808E-1,7.8632474E-1,5.8605814E-1,1.2733787E-2,4.1321754E-1,0E0,4.4022974E-1,0E0,0E0,0E0,0E0,0E0,0E0],"parents":[2147483647,0,0,1,1,2,2,3,3,4,4,6,6],"right_children":[2,4,6,8,10,-1,12,-1,-1,-1,-1,-1,-1],"split_conditions":[-1.3353858E0,-3.919613E-1,-1.3020124E0,1.3096471E0,-1.9524295E-2,-3.869236E-2,1.6111066E0,-2.2066291E-2,-6.364322E-3,-1.9427857E-3,5.0904837E-2,-1.389286E-3,1.7051011E-2],"split_indices":[0,8,0,4,1,0,3,0,0,0,0,0,0],"split_type":[0,0,0,0,0,0,0,0,0,0,0,0,0],"sum_hessian":[1.97E2,1E1,1.87E2,4E0,6E0,3E0,1.84E2,2E0,2E0,2E0,4E0,1.71E2,1.3E1],"tree_param":{"num_deleted":"0","num_feature":"9","num_nodes":"13","size_leaf_vector":"1"}},{"base_weights":[3.6880389E-4,4.7442717E-3,-2.85618E-1,2.0103138E-2,-8.439483E-2,-4.0075608E-2,-2.7670972E-3,-1.1424911E-3,1.2468117E-2,-1.0309376E-1,-1.3770532E-3],"categories":[],"categories_nodes":[],"categories_segments":[],"categories_sizes":[],"default_left":[0,0,0,0,0,0,0,0,0,0,0],"id":76,"left_children":[1,3,5,7,9,-1,-1,-1,-1,-1,-1],"loss_changes":[2.4911763E-1,2.7003545E-1,7.800923E-2,5.553442E-1,1.9244219E0,0E0,0E0,0E0,0E0,0E0,0E0],"parents":[2147483647,0,0,1,1,2,2,3,3,4,4],"right_children":[2,4,6,8,10,-1,-1,-1,-1,-1,-1],"split_conditions":[4.586367E0,1.2531357E0,-6.368714E-1,8.3641523E-1,1.2656374E0,-4.0075608E-2,-2.7670972E-3,-1.1424911E-3,1.2468117E-2,-1.0309376E-1,-1.3770532E-3],"split_indices":[5,6,0,6,6,0,0,0,0,0,0],"split_type":[0,0,0,0,0,0,0,0,0,0,0],"sum_hessian":[1.97E2,1.95E2,2E0,1.67E2,2.8E1,1E0,1E0,1.29E2,3.8E1,1E0,2.7E1],"tree_param":{"num_deleted":"0","num_feature":"9","num_nodes":"11","size_leaf_vector":"1"}},{"base_weights":[-3.5487433E-4,-2.1996371E-1,5.3069764E-3,-4.916227E-3,-2.5037352E-2,4.5240253E-2,-3.191119E-2,2.3616573E-2,-1.6378164E-3,2.6126993E-3,-1.3742811E-2],"categories":[],"categories_nodes":[],"categories_segments":[],"categories_sizes":[],"default_left":[0,0,0,0,0,0,0,0,0,0,0],"id":77,"left_children":[1,3,5,-1,-1,7,9,-1,-1,-1,-1],"loss_changes":[2.4735907E-1,1.3661221E-2,2.897749E-1,0E0,0E0,1.1097333E0,6.221156E-1,0E0,0E0,0E0,0E0],"parents":[2147483647,0,0,1,1,2,2,5,5,6,6],"right_children":[2,4,6,-1,-1,8,10,-1,-1,-1,-1],"split_conditions":[-2.4073672E0,-9.59228E-1,2.5455825E-2,-4.916227E-3,-2.5037352E-2,-2.9839307E-1,-3.2451335E-1,2.3616573E-2,-1.6378164E-3,2.6126993E-3,-1.3742811E-2],"split_indices":[7,0,2,0,0,0,8,0,0,0,0],"split_type":[0,0,0,0,0,0,0,0,0,0,0],"sum_hessian":[1.97E2,4E0,1.93E2,1E0,3E0,9.3E1,1E2,2.2E1,7.1E1,6.5E1,3.5E1],"tree_param":{"num_deleted":"0","num_feature":"9","num_nodes":"11","size_leaf_vector":"1"}},{"base_weights":[-4.1584056E-4,-1.1660337E-1,9.744904E-3,-1.5237549E-1,2.0998923E-2,5.8397256E-2,-2.946331E-2,-2.073169E-2,-5.996862E-3,-3.5738956E-2,8.430158E-3,-3.9582495E-2,-1.4363211E-3],"categories":[],"categories_nodes":[],"categories_segments":[],"categories_sizes":[],"default_left":[0,0,0,0,0,0,0,0,0,0,0,0,0],"id":78,"left_children":[1,3,5,7,-1,9,11,-1,-1,-1,-1,-1,-1],"loss_changes":[2.3488553E-1,2.1892375E-1,3.508062E-1,6.3721925E-2,0E0,9.1332376E-1,5.5858856E-1,0E0,0E0,0E0,0E0,0E0,0E0],"parents":[2147483647,0,0,1,1,2,2,3,3,5,5,6,6],"right_children":[2,4,6,8,-1,10,12,-1,-1,-1,-1,-1,-1],"split_conditions":[-1.5859829E0,9.929014E-1,2.5455825E-2,1.0103728E0,2.0998923E-2,-5.0155056E-1,-1.0918727E0,-2.073169E-2,-5.996862E-3,-3.5738956E-2,8.430158E-3,-3.9582495E-2,-1.4363211E-3],"split_indices":[2,5,2,0,0,8,6,0,0,0,0,0,0],"split_type":[0,0,0,0,0,0,0,0,0,0,0,0,0],"sum_hessian":[1.97E2,1.5E1,1.82E2,1.4E1,1E0,8.1E1,1.01E2,8E0,6E0,4E0,7.7E1,3E0,9.8E1],"tree_param":{"num_deleted":"0","num_feature":"9","num_nodes":"13","size_leaf_vector":"1"}},{"base_weights":[-7.4832153E-4,9.0194345E-2,-1.3810496E-2,-1.351329E-1,2.0417969E-1,-2.1958357E-1,-2.5709285E-3,-5.87419E-3,-2.6833428E-2,2.96065E-2,-1.6846383E-2,7.679153E-3,-2.662294E-2,3.2496233E-3,-8.007387E-3],"categories":[],"categories_nodes":[],"categories_segments":[],"categories_sizes":[],"default_left":[0,0,0,0,0,0,0,0,0,0,0,0,0,0,0],"id":79,"left_children":[1,3,5,7,9,11,13,-1,-1,-1,-1,-1,-1,-1,-1],"loss_changes":[2.364516E-1,6.6969144E-1,4.018627E-1,7.581599E-2,6.3196415E-1,1.4486608E-1,4.537582E-1,0E0,0E0,0E0,0E0,0E0,0E0,0E0,0E0],"parents":[2147483647,0,0,1,1,2,2,3,3,4,4,5,5,6,6],"right_children":[2,4,6,8,10,12,14,-1,-1,-1,-1,-1,-1,-1,-1],"split_conditions":[-9.752395E-1,-8.5567343E-1,-9.487726E-1,3.7853184E-1,-1.8092042E-1,-3.776733E-1,4.833724E-1,-5.87419E-3,-2.6833428E-2,2.96065E-2,-1.6846383E-2,7.679153E-3,-2.662294E-2,3.2496233E-3,-8.007387E-3],"split_indices":[6,1,6,3,8,8,7,0,0,0,0,0,0,0,0],"split_type":[0,0,0,0,0,0,0,0,0,0,0,0,0,0,0],"sum_hessian":[1.97E2,2.4E1,1.73E2,8E0,1.6E1,8E0,1.65E2,6E0,2E0,1.3E1,3E0,1E0,7E0,1.14E2,5.1E1],"tree_param":{"num_deleted":"0","num_feature":"9","num_nodes":"15","size_leaf_vector":"1"}},{"base_weights":[-8.939644E-4,-2.1132861E-1,4.534217E-3,-4.761088E-3,-2.4035534E-2,1.6840732E-2,-9.2445835E-2,5.6958324E-3,-3.7599807E-3,-2.4077976E-2,-4.610609E-3],"categories":[],"categories_nodes":[],"categories_segments":[],"categories_sizes":[],"default_left":[0,0,0,0,0,0,0,0,0,0,0],"id":80,"left_children":[1,3,5,-1,-1,7,9,-1,-1,-1,-1],"loss_changes":[2.2712915E-1,1.2317419E-2,2.330932E-1,0E0,0E0,3.7997758E-1,1.4012124E-1,0E0,0E0,0E0,0E0],"parents":[2147483647,0,0,1,1,2,2,5,5,6,6],"right_children":[2,4,6,-1,-1,8,10,-1,-1,-1,-1],"split_conditions":[-2.4073672E0,-9.59228E-1,1.4205709E0,-4.761088E-3,-2.4035534E-2,3.1493536E-1,1.6655731E0,5.6958324E-3,-3.7599807E-3,-2.4077976E-2,-4.610609E-3],"split_indices":[7,0,0,0,0,1,0,0,0,0,0],"split_type":[0,0,0,0,0,0,0,0,0,0,0],"sum_hessian":[1.97E2,4E0,1.93E2,1E0,3E0,1.72E2,2.1E1,9.9E1,7.3E1,4E0,1.7E1],"tree_param":{"num_deleted":"0","num_feature":"9","num_nodes":"11","size_leaf_vector":"1"}},{"base_weights":[-1.0850818E-3,1.2713273E-2,-8.193457E-2,-1.4638664E-2,1.2670885E-1,-9.659173E-2,-1.5866715E-2,-5.0398E-3,1.1577489E-2,2.073105E-2,-1.5108513E-2,5.80774E-3,-2.966747E-2],"categories":[],"categories_nodes":[],"categories_segments":[],"categories_sizes":[],"default_left":[0,0,0,0,0,0,0,0,0,0,0,0,0],"id":81,"left_children":[1,3,5,7,9,-1,11,-1,-1,-1,-1,-1,-1],"loss_changes":[2.2192846E-1,5.319148E-1,1.6783565E0,6.4939815E-1,7.702131E-1,0E0,5.986249E-1,0E0,0E0,0E0,0E0,0E0,0E0],"parents":[2147483647,0,0,1,1,2,2,3,3,4,4,6,6],"right_children":[2,4,6,8,10,-1,12,-1,-1,-1,-1,-1,-1],"split_conditions":[1.2531357E0,9.948192E-1,1.2656374E0,8.3641523E-1,2.227394E0,-9.659173E-2,-1.4247029E-1,-5.0398E-3,1.1577489E-2,2.073105E-2,-1.5108513E-2,5.80774E-3,-2.966747E-2],"split_indices":[6,3,6,6,3,0,5,0,0,0,0,0,0],"split_type":[0,0,0,0,0,0,0,0,0,0,0,0,0],"sum_hessian":[1.97E2,1.69E2,2.8E1,1.37E2,3.2E1,1E0,2.7E1,1.08E2,2.9E1,2.5E1,7E0,2.2E1,5E0],"tree_param":{"num_deleted":"0","num_feature":"9","num_nodes":"13","size_leaf_vector":"1"}},{"base_weights":[-1.5235187E-3,-7.4324206E-2,1.5668714E-2,6.7312546E-2,-2.0516291E-1,6.615659E-1,-7.822808E-4,-3.7098538E-2,1.4069967E-2,-2.8212717E-2,8.215531E-3,1.04119545E-2,8.126748E-2,3.3495338E-3,-8.003297E-3],"categories":[],"categories_nodes":[],"categories_segments":[],"categories_sizes":[],"default_left":[0,0,0,0,0,0,0,0,0,0,0,0,0,0,0],"id":82,"left_children":[1,3,5,7,9,11,13,-1,-1,-1,-1,-1,-1,-1,-1],"loss_changes":[2.4898264E-1,7.180096E-1,1.7112473E0,6.633406E-1,4.654429E-1,2.5232506E-1,4.318917E-1,0E0,0E0,0E0,0E0,0E0,0E0,0E0,0E0],"parents":[2147483647,0,0,1,1,2,2,3,3,4,4,5,5,6,6],"right_children":[2,4,6,8,10,12,14,-1,-1,-1,-1,-1,-1,-1,-1],"split_conditions":[-9.585419E-1,-1.3099629E0,-9.485227E-1,-7.2450615E-2,6.5341586E-1,-5.344852E-1,4.833724E-1,-3.7098538E-2,1.4069967E-2,-2.8212717E-2,8.215531E-3,1.04119545E-2,8.126748E-2,3.3495338E-3,-8.003297E-3],"split_indices":[5,5,5,6,7,0,7,0,0,0,0,0,0,0,0],"split_type":[0,0,0,0,0,0,0,0,0,0,0,0,0,0,0],"sum_hessian":[1.97E2,3.7E1,1.6E2,1.8E1,1.9E1,3E0,1.57E2,2E0,1.6E1,1.5E1,4E0,1E0,2E0,1.1E2,4.7E1],"tree_param":{"num_deleted":"0","num_feature":"9","num_nodes":"15","size_leaf_vector":"1"}},{"base_weights":[-1.1489509E-3,1.8330066E-2,-5.917344E-2,-1.5059207E-2,2.6216638E-1,2.2664918E-2,-3.2021698E-1,1.8249592E-3,-2.576886E-2,-1.2105677E-2,3.803056E-2,9.429676E-3,-1.6824313E-2,-5.927121E-3,-6.736868E-2],"categories":[],"categories_nodes":[],"categories_segments":[],"categories_sizes":[],"default_left":[0,0,0,0,0,0,0,0,0,0,0,0,0,0,0],"id":83,"left_children":[1,3,5,7,9,11,13,-1,-1,-1,-1,-1,-1,-1,-1],"loss_changes":[2.248761E-1,1.2170341E0,1.0754263E0,1.0714862E0,8.60965E-1,5.491935E-1,1.066907E0,0E0,0E0,0E0,0E0,0E0,0E0,0E0,0E0],"parents":[2147483647,0,0,1,1,2,2,3,3,4,4,5,5,6,6],"right_children":[2,4,6,8,10,12,14,-1,-1,-1,-1,-1,-1,-1,-1],"split_conditions":[1.0291737E0,8.3641523E-1,-3.3056346E-1,6.0726607E-1,-2.3775554E-1,4.990506E-1,2.3171999E-1,1.8249592E-3,-2.576886E-2,-1.2105677E-2,3.803056E-2,9.429676E-3,-1.6824313E-2,-5.927121E-3,-6.736868E-2],"split_indices":[6,6,8,6,3,0,2,0,0,0,0,0,0,0,0],"split_type":[0,0,0,0,0,0,0,0,0,0,0,0,0,0,0],"sum_hessian":[1.97E2,1.48E2,4.9E1,1.31E2,1.7E1,3.8E1,1.1E1,1.16E2,1.5E1,4E0,1.3E1,2.8E1,1E1,7E0,4E0],"tree_param":{"num_deleted":"0","num_feature":"9","num_nodes":"15","size_leaf_vector":"1"}},{"base_weights":[-1.4315548E-3,-6.4684324E-2,1.8136285E-2,-1.7690319E-1,5.0229732E-2,3.088808E-1,-1.1277814E-2,6.1031687E-3,-2.2754176E-2,-5.9834286E-3,2.7783705E-2,4.8789058E-2,-1.1091487E-2,-1.1230694E-2,2.3802246E-3],"categories":[],"categories_nodes":[],"categories_segments":[],"categories_sizes":[],"default_left":[0,0,0,0,0,0,0,0,0,0,0,0,0,0,0],"id":84,"left_children":[1,3,5,7,9,11,13,-1,-1,-1,-1,-1,-1,-1,-1],"loss_changes":[2.4624169E-1,6.1497545E-1,1.3033857E0,3.0305558E-1,6.178572E-1,1.1061798E0,4.9530417E-1,0E0,0E0,0E0,0E0,0E0,0E0,0E0,0E0],"parents":[2147483647,0,0,1,1,2,2,3,3,4,4,5,5,6,6],"right_children":[2,4,6,8,10,12,14,-1,-1,-1,-1,-1,-1,-1,-1],"split_conditions":[-5.368886E-1,3.7853184E-1,-2.8182337E-1,-8.5404295E-1,-3.463923E-1,3.61639E-1,-8.0128384E-1,6.1031687E-3,-2.2754176E-2,-5.9834286E-3,2.7783705E-2,4.8789058E-2,-1.1091487E-2,-1.1230694E-2,2.3802246E-3],"split_indices":[7,3,7,3,8,0,0,0,0,0,0,0,0,0,0],"split_type":[0,0,0,0,0,0,0,0,0,0,0,0,0,0,0],"sum_hessian":[1.97E2,4.6E1,1.51E2,2.3E1,2.3E1,1.3E1,1.38E2,4E0,1.9E1,1.6E1,7E0,9E0,4E0,3.5E1,1.03E2],"tree_param":{"num_deleted":"0","num_feature":"9","num_nodes":"15","size_leaf_vector":"1"}},{"base_weights":[-1.116684E-3,-6.0519297E-2,1.6750224E-2,-9.201268E-2,4.2155676E-2,-4.614089E-3,2.4718237E-1,8.236766E-4,-2.1272385E-2,-3.0735235E-3,1.5495561E-2,5.295669E-2,-7.0513943E-3],"categories":[],"categories_nodes":[],"categories_segments":[],"categories_sizes":[],"default_left":[0,0,0,0,0,0,0,0,0,0,0,0,0],"id":85,"left_children":[1,3,5,7,-1,9,11,-1,-1,-1,-1,-1,-1],"loss_changes":[2.1115923E-1,7.3717004E-1,7.5436324E-1,5.3420615E-1,0E0,5.924708E-1,1.2036047E0,0E0,0E0,0E0,0E0,0E0,0E0],"parents":[2147483647,0,0,1,1,2,2,3,3,5,5,6,6],"right_children":[2,4,6,8,-1,10,12,-1,-1,-1,-1,-1,-1],"split_conditions":[-6.884436E-1,-1.9369985E-1,7.812085E-1,1.4328538E-1,4.2155676E-2,9.084811E-1,-3.9719823E-1,8.236766E-4,-2.1272385E-2,-3.0735235E-3,1.5495561E-2,5.295669E-2,-7.0513943E-3],"split_indices":[1,2,8,7,0,7,0,0,0,0,0,0,0],"split_type":[0,0,0,0,0,0,0,0,0,0,0,0,0],"sum_hessian":[1.97E2,4.5E1,1.52E2,4.3E1,2E0,1.4E2,1.2E1,2.4E1,1.9E1,1.21E2,1.9E1,6E0,6E0],"tree_param":{"num_deleted":"0","num_feature":"9","num_nodes":"13","size_leaf_vector":"1"}},{"base_weights":[-6.008121E-4,3.3987798E-3,-2.6170722E-1,-1.2200532E-2,1.0586353E-1,-3.6002696E-2,-3.253387E-3,-1.5859896E-2,1.3953986E-3,1.8619899E-2,-1.3878969E-2],"categories":[],"categories_nodes":[],"categories_segments":[],"categories_sizes":[],"default_left":[0,0,0,0,0,0,0,0,0,0,0],"id":86,"left_children":[1,3,5,7,9,-1,-1,-1,-1,-1,-1],"loss_changes":[2.0766465E-1,3.1457397E-1,5.5883735E-2,6.569688E-1,5.36855E-1,0E0,0E0,0E0,0E0,0E0,0E0],"parents":[2147483647,0,0,1,1,2,2,3,3,4,4],"right_children":[2,4,6,8,10,-1,-1,-1,-1,-1,-1],"split_conditions":[4.586367E0,9.4075304E-1,-6.368714E-1,-9.0044993E-1,2.227394E0,-3.6002696E-2,-3.253387E-3,-1.5859896E-2,1.3953986E-3,1.8619899E-2,-1.3878969E-2],"split_indices":[5,2,0,0,3,0,0,0,0,0,0],"split_type":[0,0,0,0,0,0,0,0,0,0,0],"sum_hessian":[1.97E2,1.95E2,2E0,1.7E2,2.5E1,1E0,1E0,2.5E1,1.45E2,1.9E1,6E0],"tree_param":{"num_deleted":"0","num_feature":"9","num_nodes":"11","size_leaf_vector":"1"}},{"base_weights":[-7.881249E-4,8.2836635E-2,-1.2798647E-2,-1.1168398E-1,1.809454E-1,-1.949417E-1,-2.846321E-3,-3.836114E-3,-2.4554262E-2,6.579661E-4,3.762844E-2,7.44136E-3,-2.3791282E-2,2.7512957E-3,-6.993229E-3],"categories":[],"categories_nodes":[],"categories_segments":[],"categories_sizes":[],"default_left":[0,0,0,0,0,0,0,0,0,0,0,0,0,0,0],"id":87,"left_children":[1,3,5,7,9,11,13,-1,-1,-1,-1,-1,-1,-1,-1],"loss_changes":[1.9992685E-1,4.9731314E-1,3.1486312E-1,7.891477E-2,5.7655144E-1,1.2187445E-1,3.4001318E-1,0E0,0E0,0E0,0E0,0E0,0E0,0E0,0E0],"parents":[2147483647,0,0,1,1,2,2,3,3,4,4,5,5,6,6],"right_children":[2,4,6,8,10,12,14,-1,-1,-1,-1,-1,-1,-1,-1],"split_conditions":[-9.752395E-1,-8.5567343E-1,-9.487726E-1,3.7853184E-1,-1.04099E0,-3.776733E-1,4.833724E-1,-3.836114E-3,-2.4554262E-2,6.579661E-4,3.762844E-2,7.44136E-3,-2.3791282E-2,2.7512957E-3,-6.993229E-3],"split_indices":[6,1,6,3,6,8,7,0,0,0,0,0,0,0,0],"split_type":[0,0,0,0,0,0,0,0,0,0,0,0,0,0,0],"sum_hessian":[1.97E2,2.4E1,1.73E2,8E0,1.6E1,8E0,1.65E2,6E0,2E0,9E0,7E0,1E0,7E0,1.14E2,5.1E1],"tree_param":{"num_deleted":"0","num_feature":"9","num_nodes":"15","size_leaf_vector":"1"}},{"base_weights":[-7.6335046E-4,3.0623719E-3,-2.504561E-1,-1.0968373E-2,9.5223725E-2,-3.4340132E-2,-3.2282823E-3,-1.4388243E-2,1.2776377E-3,-7.935098E-4,2.9096095E-2],"categories":[],"categories_nodes":[],"categories_segments":[],"categories_sizes":[],"default_left":[0,0,0,0,0,0,0,0,0,0,0],"id":88,"left_children":[1,3,5,7,9,-1,-1,-1,-1,-1,-1],"loss_changes":[1.8990749E-1,2.5449055E-1,4.9748525E-2,5.415162E-1,5.2730143E-1,0E0,0E0,0E0,0E0,0E0,0E0],"parents":[2147483647,0,0,1,1,2,2,3,3,4,4],"right_children":[2,4,6,8,10,-1,-1,-1,-1,-1,-1],"split_conditions":[4.586367E0,9.4075304E-1,-6.368714E-1,-9.0044993E-1,8.140547E-1,-3.4340132E-2,-3.2282823E-3,-1.4388243E-2,1.2776377E-3,-7.935098E-4,2.9096095E-2],"split_indices":[5,2,0,0,6,0,0,0,0,0,0],"split_type":[0,0,0,0,0,0,0,0,0,0,0],"sum_hessian":[1.97E2,1.95E2,2E0,1.7E2,2.5E1,1E0,1E0,2.5E1,1.45E2,1.7E1,8E0],"tree_param":{"num_deleted":"0","num_feature":"9","num_nodes":"11","size_leaf_vector":"1"}},{"base_weights":[-8.000463E-4,-6.803339E-2,1.3553411E-2,6.0289267E-2,-2.0745087E-1,1.8767723E-1,-1.6180811E-2,-3.4713805E-2,1.2864179E-2,-2.6499972E-2,4.5832843E-3,-3.5170156E-3,5.0318062E-2,-1.1240688E-2,2.4395946E-3],"categories":[],"categories_nodes":[],"categories_segments":[],"categories_sizes":[],"default_left":[0,0,0,0,0,0,0,0,0,0,0,0,0,0,0],"id":89,"left_children":[1,3,5,7,9,11,13,-1,-1,-1,-1,-1,-1,-1,-1],"loss_changes":[1.919982E-1,6.3867176E-1,8.521364E-1,5.7378143E-1,2.5994086E-1,1.7051156E0,5.532826E-1,0E0,0E0,0E0,0E0,0E0,0E0,0E0,0E0],"parents":[2147483647,0,0,1,1,2,2,3,3,4,4,5,5,6,6],"right_children":[2,4,6,8,10,12,14,-1,-1,-1,-1,-1,-1,-1,-1],"split_conditions":[-9.8336047E-1,-1.3099629E0,-6.6901445E-1,-7.2450615E-2,6.5341586E-1,-3.100857E-1,2.0846984E-1,-3.4713805E-2,1.2864179E-2,-2.6499972E-2,4.5832843E-3,-3.5170156E-3,5.0318062E-2,-1.1240688E-2,2.4395946E-3],"split_indices":[5,5,5,6,7,8,5,0,0,0,0,0,0,0,0],"split_type":[0,0,0,0,0,0,0,0,0,0,0,0,0,0,0],"sum_hessian":[1.97E2,3.4E1,1.63E2,1.8E1,1.6E1,2.3E1,1.4E2,2E0,1.6E1,1.3E1,3E0,1.4E1,9E0,4.1E1,9.9E1],"tree_param":{"num_deleted":"0","num_feature":"9","num_nodes":"15","size_leaf_vector":"1"}},{"base_weights":[-7.4914243E-4,3.0388523E-2,-3.8380744E-3,-2.9691523E-2,2.2245378E-3,3.174344E-2,-2.7122023E-4],"categories":[],"categories_nodes":[],"categories_segments":[],"categories_sizes":[],"default_left":[0,0,0,0,0,0,0],"id":90,"left_children":[1,-1,3,-1,5,-1,-1],"loss_changes":[1.8748331E-1,0E0,3.5069272E-1,0E0,3.0274612E-1,0E0,0E0],"parents":[2147483647,0,0,2,2,4,4],"right_children":[2,-1,4,-1,6,-1,-1],"split_conditions":[-5.1700646E-1,3.0388523E-2,-5.1118416E-1,-2.9691523E-2,-5.0999653E-1,3.174344E-2,-2.7122023E-4],"split_indices":[8,0,8,0,8,0,0],"split_type":[0,0,0,0,0,0,0],"sum_hessian":[1.97E2,1E0,1.96E2,3E0,1.93E2,2E0,1.91E2],"tree_param":{"num_deleted":"0","num_feature":"9","num_nodes":"7","size_leaf_vector":"1"}},{"base_weights":[-5.1171234E-4,-6.284808E-3,1.5790914E-1,-1.3832648E-3,-4.7123976E-2,4.2574757E-1,-1.4940657E-1,-1.7331338E-3,9.207628E-3,2.1407605E-4,5.6623627E-2,1.7899871E-4,-2.0040208E-2],"categories":[],"categories_nodes":[],"categories_segments":[],"categories_sizes":[],"default_left":[0,0,0,0,0,0,0,0,0,0,0,0,0],"id":91,"left_children":[1,3,5,7,-1,9,11,-1,-1,-1,-1,-1,-1],"loss_changes":[1.8207902E-1,4.369155E-1,6.3978624E-1,2.862812E-1,0E0,2.3683566E-1,3.1200096E-2,0E0,0E0,0E0,0E0,0E0,0E0],"parents":[2147483647,0,0,1,1,2,2,3,3,5,5,6,6],"right_children":[2,4,6,8,-1,10,12,-1,-1,-1,-1,-1,-1],"split_conditions":[3.629013E0,3.6043763E0,-1.15259895E-2,9.084811E-1,-4.7123976E-2,-1.3621765E0,-8.5567343E-1,-1.7331338E-3,9.207628E-3,2.1407605E-4,5.6623627E-2,1.7899871E-4,-2.0040208E-2],"split_indices":[8,8,0,7,0,0,1,0,0,0,0,0,0],"split_type":[0,0,0,0,0,0,0,0,0,0,0,0,0],"sum_hessian":[1.97E2,1.91E2,6E0,1.9E2,1E0,3E0,3E0,1.63E2,2.7E1,1E0,2E0,1E0,2E0],"tree_param":{"num_deleted":"0","num_feature":"9","num_nodes":"13","size_leaf_vector":"1"}},{"base_weights":[-4.7406275E-4,1.2295945E-1,-7.693715E-3,-1.525906E-1,3.0221528E-1,-3.314617E-2,-6.517384E-4,-1.9205134E-2,-6.226635E-3,